/*
This program is free software; you can redistribute it and/or modify
it under the terms of the GNU Library General Public License as published by
the Free Software Foundation; either version 2 of the License, or
(at your option) any later version.

This program is distributed in the hope that it will be useful,
but WITHOUT ANY WARRANTY; without even the implied warranty of
MERCHANTABILITY or FITNESS FOR A PARTICULAR PURPOSE.  See the
GNU General Public License for more details.

You should have received a copy of the GNU General Public License
along with this program; if not, write to the Free Software
Foundation, Inc., 59 Temple Place - Suite 330, Boston, MA 02111-1307, USA. 

Copyright (C) 2002 Liam Girdwood <liam@nova-ioe.org>

The functions in this file use the Lunar Solution ELP 2000-82B by
Michelle Chapront-Touze and Jean Chapront.

*/

#include "lunar.h"
#include <math.h>

/* AU in KM */
#define AU			149597870.691

/* sequence sizes */
#define ELP1_SIZE	1023  	  	/* Main problem. Longitude periodic terms (sine) */
#define ELP2_SIZE	918    		/* Main problem. Latitude (sine) */
#define ELP3_SIZE	704    		/* Main problem. Distance (cosine) */
#define ELP4_SIZE	347    		/* Earth figure perturbations. Longitude */
#define ELP5_SIZE	316   		/* Earth figure perturbations. Latitude */
#define ELP6_SIZE	237    		/* Earth figure perturbations. Distance */
#define ELP7_SIZE	14    		/* Earth figure perturbations. Longitude/t */
#define ELP8_SIZE	11    		/* Earth figure perturbations. Latitude/t */
#define ELP9_SIZE	8    		/* Earth figure perturbations. Distance/t */
#define ELP10_SIZE	14328    	/* Planetary perturbations. Table 1 Longitude */
#define ELP11_SIZE	5233    	/* Planetary perturbations. Table 1 Latitude */
#define ELP12_SIZE	6631    	/* Planetary perturbations. Table 1 Distance */
#define ELP13_SIZE	4384    	/* Planetary perturbations. Table 1 Longitude/t */
#define ELP14_SIZE	833    		/* Planetary perturbations. Table 1 Latitude/t */
#define ELP15_SIZE	1715    	/* Planetary perturbations. Table 1 Distance/t */
#define ELP16_SIZE	170    		/* Planetary perturbations. Table 2 Longitude */
#define ELP17_SIZE	150    		/* Planetary perturbations. Table 2 Latitude */
#define ELP18_SIZE	114    		/* Planetary perturbations. Table 2 Distance */
#define ELP19_SIZE	226    		/* Planetary perturbations. Table 2 Longitude/t */
#define ELP20_SIZE	188    		/* Planetary perturbations. Table 2 Latitude/t */
#define ELP21_SIZE	169    		/* Planetary perturbations. Table 2 Distance/t */
#define ELP22_SIZE	3    		/* Tidal effects. Longitude */
#define ELP23_SIZE	2    		/* Tidal effects. Latitude */
#define ELP24_SIZE	2    		/* Tidal effects. Distance */
#define ELP25_SIZE	6    		/* Tidal effects. Longitude/t */
#define ELP26_SIZE	4    		/* Tidal effects. Latitude/t */
#define ELP27_SIZE	5    		/* Tidal effects. Distance/t */
#define ELP28_SIZE	20    		/* Moon figure perturbations. Longitude */
#define ELP29_SIZE	12    		/* Moon figure perturbations. Latitude */
#define ELP30_SIZE	14    		/* Moon figure perturbations. Distance */
#define ELP31_SIZE	11    		/* Relativistic perturbations. Longitude */
#define ELP32_SIZE	4    		/* Relativistic perturbations. Latitude */
#define ELP33_SIZE	10    		/* Relativistic perturbations. Distance */
#define ELP34_SIZE	28    		/* Planetary perturbations - solar eccentricity. Longitude/t2 */
#define ELP35_SIZE	13    		/* Planetary perturbations - solar eccentricity. Latitude/t2 */
#define ELP36_SIZE	19    		/* Planetary perturbations - solar eccentricity. Distance/t2 */


/* Chapront theory lunar constants */
#define 	RAD		(648000.0 / M_PI)
#define		DEG		(M_PI / 180.0)
#define		M_PI2 	(2.0 * M_PI)
#define		PIS2	(M_PI / 2.0)
#define 	ATH		384747.9806743165
#define 	A0		384747.9806448954
#define		AM	 	0.074801329518
#define		ALPHA 	0.002571881335
#define		DTASM	(2.0 * ALPHA / (3.0 * AM))
#define		W12		(1732559343.73604 / RAD)
#define		PRECES	(5029.0966 / RAD)
#define		C1		60.0
#define		C2		3600.0

/* Corrections of the constants for DE200/LE200 */
#define		DELNU	((0.55604 / RAD) / W12)
#define		DELE	(0.01789 / RAD)
#define		DELG	(-0.08066 / RAD)
#define		DELNP	((-0.06424 / RAD) / W12)
#define 	DELEP	(-0.12879 / RAD)

/*     Precession matrix */
#define		P1		0.10180391e-4
#define		P2		0.47020439e-6
#define		P3		-0.5417367e-9
#define		P4		-0.2507948e-11
#define		P5		0.463486e-14
#define		Q1		-0.113469002e-3
#define		Q2		0.12372674e-6
#define		Q3		0.1265417e-8
#define		Q4		-0.1371808e-11
#define		Q5		-0.320334e-14


/* constants with corrections for DE200 / LE200 */
static const double W1[5] = 
{
	((218.0 + (18.0 / 60.0) + (59.95571 / 3600.0))) * DEG,
	1732559343.73604 / RAD,
	-5.8883 / RAD,
	0.006604 / RAD,
	-0.00003169 / RAD
}; 

static const double W2[5] = 
{
	((83.0 + (21.0 / 60.0) + (11.67475 / 3600.0))) * DEG,
	14643420.2632 / RAD,
	-38.2776 /  RAD,
	-0.045047 / RAD,
	0.00021301 / RAD
};

static const double W3[5] = 
{
	(125.0 + (2.0 / 60.0) + (40.39816 / 3600.0)) * DEG,
	-6967919.3622 / RAD,
	6.3622 / RAD,
	0.007625 / RAD,
	-0.00003586 / RAD
};

static const double earth[5] = 
{
	(100.0 + (27.0 / 60.0) + (59.22059 / 3600.0)) * DEG,
	129597742.2758 / RAD,
	-0.0202 / RAD,
	0.000009 / RAD,
	0.00000015 / RAD	
};

static const double peri[5] =
{
	(102.0 + (56.0 / 60.0) + (14.42753 / 3600.0)) * DEG,
	1161.2283 / RAD,
	0.5327 / RAD,
	-0.000138 / RAD,
	0
};

/* Delaunay's arguments.*/
static const double del[4][5] = {
	{ 5.198466741027443, 7771.377146811758394, -0.000028449351621, 0.000000031973462, -0.000000000154365 },
	{ -0.043125180208125, 628.301955168488007, -0.000002680534843, 0.000000000712676, 0.000000000000727 },
	{ 2.355555898265799, 8328.691426955554562, 0.000157027757616, 0.000000250411114, -0.000000001186339 },
	{ 1.627905233371468, 8433.466158130539043, -0.000059392100004, -0.000000004949948, 0.000000000020217 }
};


static const double zeta[2] = 
{
	(218.0 + (18.0 / 60.0) + (59.95571 / 3600.0)) * DEG, 
	((1732559343.73604 / RAD) + PRECES)
};


/* Planetary arguments */
static const double p[8][2] = 
{
	{(252 + 15 / C1 + 3.25986 / C2 ) * DEG, 538101628.68898 / RAD },
	{(181 + 58 / C1 + 47.28305 / C2) * DEG, 210664136.43355 / RAD },
	{(100.0 + (27.0 / 60.0) + (59.22059 / 3600.0)) * DEG, 129597742.2758 / RAD},
	{(355 + 25 / C1 + 59.78866 / C2) * DEG, 68905077.59284 / RAD },
	{(34 + 21 / C1 + 5.34212 / C2) * DEG, 10925660.42861 / RAD },
	{(50 + 4 / C1 + 38.89694 / C2) * DEG, 4399609.65932 / RAD },
	{(314 + 3 / C1 + 18.01841 / C2) * DEG, 1542481.19393 / RAD },
	{(304 + 20 / C1 + 55.19575 / C2) * DEG, 786550.32074 / RAD }
};

/* precision */
static double pre[3];

/* ELP 2000-82B Arguments */
static const struct main_problem main_elp1[ELP1_SIZE] =
{
	{0, 0, 0, 2, -411.602870, 168.480000, -18433.810000, -121.620000, 0.400000, -0.180000},
	{0, 0, 0, 4, 0.420340, -0.390000, 37.650000, 0.570000, 0.000000, 0.000000},
	{0, 0, 0, 6, -0.000590, 0.000000, -0.080000, 0.000000, 0.000000, 0.000000},
	{0, 0, 1, -6, 0.000160, 0.000000, 0.020000, 0.000000, 0.000000, 0.000000},
	{0, 0, 1, -4, -0.080190, 0.770000, -7.220000, -1.460000, 0.000000, 0.000000},
	{0, 0, 1, -2, 39.533930, -395.240000, 1788.330000, 720.910000, -2.600000, 0.900000},
	{0, 0, 1, 0, 22639.550000, 0.000000, 0.000000, 412529.610000, 0.000000, 0.000000},
	{0, 0, 1, 2, -45.100320, 17.410000, -2019.780000, -830.200000, 0.090000, -0.020000},
	{0, 0, 1, 4, 0.090920, -0.070000, 8.140000, 1.730000, 0.000000, 0.000000},
	{0, 0, 1, 6, -0.000190, 0.000000, -0.020000, 0.000000, 0.000000, 0.000000},
	{0, 0, 2, -4, 0.000680, 0.070000, 0.060000, 0.030000, 0.000000, 0.000000},
	{0, 0, 2, -2, -1.372590, -7.580000, -62.490000, -50.120000, -0.070000, 0.000000},
	{0, 0, 2, 0, 769.023260, -257.510000, -47.390000, 28008.990000, -6.830000, -0.560000},
	{0, 0, 2, 2, -3.997670, 2.400000, -178.940000, -146.180000, 0.050000, 0.000000},
	{0, 0, 2, 4, 0.012970, -0.010000, 1.160000, 0.480000, 0.000000, 0.000000},
	{0, 0, 2, 6, -0.000040, 0.000000, 0.000000, 0.000000, 0.000000, 0.000000},
	{0, 0, 3, -4, 0.000090, 0.000000, 0.000000, 0.000000, 0.000000, 0.000000},
	{0, 0, 3, -2, -0.056840, 0.380000, -2.650000, -3.130000, 0.000000, 0.000000},
	{0, 0, 3, 0, 36.123640, -28.420000, -5.100000, 1972.740000, -0.930000, -0.080000},
	{0, 0, 3, 2, -0.328660, 0.320000, -14.700000, -17.990000, 0.000000, 0.000000},
	{0, 0, 3, 4, 0.001530, 0.000000, 0.140000, 0.080000, 0.000000, 0.000000},
	{0, 0, 4, -2, -0.003540, 0.040000, -0.170000, -0.260000, 0.000000, 0.000000},
	{0, 0, 4, 0, 1.933670, -2.650000, -0.440000, 140.750000, -0.100000, 0.000000},
	{0, 0, 4, 2, -0.026020, 0.040000, -1.160000, -1.900000, 0.000000, 0.000000},
	{0, 0, 4, 4, 0.000160, 0.000000, 0.010000, 0.010000, 0.000000, 0.000000},
	{0, 0, 5, -2, -0.000230, 0.000000, -0.010000, -0.020000, 0.000000, 0.000000},
	{0, 0, 5, 0, 0.111000, -0.230000, -0.040000, 10.100000, 0.000000, 0.000000},
	{0, 0, 5, 2, -0.002010, 0.000000, -0.090000, -0.180000, 0.000000, 0.000000},
	{0, 0, 5, 4, 0.000020, 0.000000, 0.000000, 0.000000, 0.000000, 0.000000},
	{0, 0, 6, -2, -0.000020, 0.000000, 0.000000, 0.000000, 0.000000, 0.000000},
	{0, 0, 6, 0, 0.006650, -0.020000, 0.000000, 0.730000, 0.000000, 0.000000},
	{0, 0, 6, 2, -0.000150, 0.000000, 0.000000, -0.020000, 0.000000, 0.000000},
	{0, 0, 7, 0, 0.000410, 0.000000, 0.000000, 0.050000, 0.000000, 0.000000},
	{0, 0, 7, 2, -0.000010, 0.000000, 0.000000, 0.000000, 0.000000, 0.000000},
	{0, 0, 8, 0, 0.000030, 0.000000, 0.000000, 0.000000, 0.000000, 0.000000},
	{0, 1, -7, 0, -0.000020, 0.000000, 0.000000, 0.000000, 0.000000, 0.000000},
	{0, 1, -6, 0, -0.000240, 0.000000, 0.000000, -0.030000, -0.010000, 0.000000},
	{0, 1, -5, -2, 0.000060, 0.000000, 0.000000, 0.000000, 0.000000, 0.000000},
	{0, 1, -5, 0, -0.003320, -0.070000, 0.000000, -0.300000, -0.200000, 0.000000},
	{0, 1, -4, -2, 0.000640, 0.010000, 0.030000, 0.050000, 0.040000, 0.000000},
	{0, 1, -4, 0, -0.047020, -1.040000, 0.030000, -3.420000, -2.820000, 0.000000},
	{0, 1, -4, 2, 0.000070, 0.000000, 0.000000, 0.000000, 0.000000, 0.000000},
	{0, 1, -3, -4, -0.000030, 0.000000, 0.000000, 0.000000, 0.000000, 0.000000},
	{0, 1, -3, -2, 0.006230, 0.140000, 0.280000, 0.340000, 0.370000, 0.000000},
	{0, 1, -3, 0, -0.669400, -15.550000, 0.380000, -36.530000, -40.100000, -0.020000},
	{0, 1, -3, 2, 0.001060, 0.020000, 0.050000, 0.060000, 0.070000, 0.000000},
	{0, 1, -2, -4, -0.000170, 0.000000, -0.020000, 0.000000, -0.010000, 0.000000},
	{0, 1, -2, -2, 0.051650, 1.170000, 2.290000, 1.890000, 3.090000, 0.000000},
	{0, 1, -2, 0, -9.679380, -235.290000, 4.900000, -352.520000, -579.940000, -0.150000},
	{0, 1, -2, 2, 0.024290, 0.740000, 1.090000, 0.890000, 1.460000, 0.000000},
	{0, 1, -2, 4, -0.000040, 0.000000, 0.000000, 0.000000, 0.000000, 0.000000},
	{0, 1, -1, -4, -0.000630, -0.010000, -0.060000, -0.010000, -0.040000, 0.000000},
	{0, 1, -1, -2, 0.301570, 6.600000, 13.340000, 5.610000, 18.070000, 0.000000},
	{0, 1, -1, 0, -147.326540, -3778.620000, 68.680000, -2688.530000, -8829.170000, -0.760000},
	{0, 1, -1, 2, -0.080490, 0.250000, -3.630000, -1.390000, -4.820000, -0.010000},
	{0, 1, -1, 4, 0.000130, 0.000000, 0.010000, 0.000000, 0.000000, 0.000000},
	{0, 1, 0, -4, -0.000230, 0.010000, -0.020000, 0.000000, -0.010000, 0.000000},
	{0, 1, 0, -2, 0.075010, -6.720000, 3.040000, 0.850000, 4.460000, 0.000000},
	{0, 1, 0, 0, -666.441860, -5206.840000, 258.790000, -555.980000, -39887.790000, 1.730000},
	{0, 1, 0, 2, 0.413420, 1.500000, 18.150000, 1.190000, 24.720000, 0.010000},
	{0, 1, 0, 4, -0.000830, 0.000000, -0.070000, 0.000000, -0.050000, 0.000000},
	{0, 1, 1, -4, 0.000110, 0.000000, 0.010000, 0.000000, 0.000000, 0.000000},
	{0, 1, 1, -2, -0.082820, 1.730000, -3.730000, -1.500000, -4.950000, 0.000000},
	{0, 1, 1, 0, -109.384190, -2193.780000, 51.640000, -2018.130000, -6556.100000, 0.540000},
	{0, 1, 1, 2, 0.263380, 4.530000, 11.650000, 5.030000, 15.780000, 0.000000},
	{0, 1, 1, 4, -0.000620, 0.000000, -0.060000, -0.010000, -0.040000, 0.000000},
	{0, 1, 2, -4, -0.000030, 0.000000, 0.000000, 0.000000, 0.000000, 0.000000},
	{0, 1, 2, -2, 0.026770, 1.100000, 1.200000, 0.970000, 1.600000, 0.000000},
	{0, 1, 2, 0, -7.630410, -156.070000, 4.090000, -279.890000, -457.410000, 0.120000},
	{0, 1, 2, 2, 0.043380, 0.810000, 1.920000, 1.610000, 2.600000, 0.000000},
	{0, 1, 2, 4, -0.000150, 0.000000, -0.010000, 0.000000, 0.000000, 0.000000},
	{0, 1, 3, -2, 0.001660, 0.060000, 0.080000, 0.090000, 0.100000, 0.000000},
	{0, 1, 3, 0, -0.545940, -11.180000, 0.340000, -29.970000, -32.730000, 0.010000},
	{0, 1, 3, 2, 0.005260, 0.100000, 0.230000, 0.290000, 0.320000, 0.000000},
	{0, 1, 3, 4, -0.000030, 0.000000, 0.000000, 0.000000, 0.000000, 0.000000},
	{0, 1, 4, -2, 0.000140, 0.000000, 0.000000, 0.010000, 0.000000, 0.000000},
	{0, 1, 4, 0, -0.039470, -0.800000, 0.030000, -2.890000, -2.370000, 0.000000},
	{0, 1, 4, 2, 0.000550, 0.010000, 0.020000, 0.040000, 0.030000, 0.000000},
	{0, 1, 5, -2, 0.000010, 0.000000, 0.000000, 0.000000, 0.000000, 0.000000},
	{0, 1, 5, 0, -0.002870, -0.060000, 0.000000, -0.260000, -0.170000, 0.000000},
	{0, 1, 5, 2, 0.000050, 0.000000, 0.000000, 0.000000, 0.000000, 0.000000},
	{0, 1, 6, 0, -0.000210, 0.000000, 0.000000, -0.020000, -0.010000, 0.000000},
	{0, 1, 7, 0, -0.000020, 0.000000, 0.000000, 0.000000, 0.000000, 0.000000},
	{0, 2, -5, 0, -0.000090, 0.000000, 0.000000, 0.000000, -0.010000, 0.000000},
	{0, 2, -4, -2, 0.000020, 0.000000, 0.000000, 0.000000, 0.000000, 0.000000},
	{0, 2, -4, 0, -0.001190, -0.040000, 0.000000, -0.090000, -0.140000, 0.000000},
	{0, 2, -3, -2, 0.000140, 0.000000, 0.000000, 0.000000, 0.020000, 0.000000},
	{0, 2, -3, 0, -0.015140, -0.500000, 0.010000, -0.830000, -1.810000, 0.000000},
	{0, 2, -3, 2, 0.000030, 0.000000, 0.000000, 0.000000, 0.000000, 0.000000},
	{0, 2, -2, -2, 0.001000, 0.030000, 0.040000, 0.040000, 0.120000, 0.000000},
	{0, 2, -2, 0, -0.193110, -6.230000, 0.130000, -7.040000, -23.130000, 0.000000},
	{0, 2, -2, 2, 0.000600, 0.020000, 0.030000, 0.020000, 0.070000, 0.000000},
	{0, 2, -1, -2, 0.004730, 0.120000, 0.210000, 0.090000, 0.570000, 0.000000},
	{0, 2, -1, 0, -2.568130, -81.060000, 1.440000, -46.940000, -307.620000, 0.000000},
	{0, 2, -1, 2, 0.000130, 0.050000, 0.000000, 0.000000, 0.020000, 0.000000},
	{0, 2, 0, -2, -0.003550, -0.260000, -0.160000, 0.020000, -0.420000, 0.000000},
	{0, 2, 0, 0, -7.448040, -12.640000, 2.980000, -9.320000, -891.270000, 0.030000},
	{0, 2, 0, 2, 0.005190, -0.030000, 0.230000, 0.020000, 0.620000, 0.000000},
	{0, 2, 0, 4, -0.000010, 0.000000, 0.000000, 0.000000, 0.000000, 0.000000},
	{0, 2, 1, -2, -0.000400, 0.080000, -0.020000, 0.000000, -0.050000, 0.000000},
	{0, 2, 1, 0, -1.161770, -19.750000, 0.430000, -21.520000, -139.130000, 0.000000},
	{0, 2, 1, 2, 0.002700, 0.030000, 0.120000, 0.050000, 0.320000, 0.000000},
	{0, 2, 2, -2, 0.000400, 0.020000, 0.020000, 0.020000, 0.050000, 0.000000},
	{0, 2, 2, 0, -0.065130, -0.790000, 0.020000, -2.390000, -7.800000, 0.000000},
	{0, 2, 2, 2, 0.000350, 0.000000, 0.020000, 0.010000, 0.040000, 0.000000},
	{0, 2, 3, -2, 0.000020, 0.000000, 0.000000, 0.000000, 0.000000, 0.000000},
	{0, 2, 3, 0, -0.003410, 0.000000, 0.000000, -0.190000, -0.410000, 0.000000},
	{0, 2, 3, 2, 0.000030, 0.000000, 0.000000, 0.000000, 0.000000, 0.000000},
	{0, 2, 4, 0, -0.000150, 0.000000, 0.000000, -0.010000, -0.020000, 0.000000},
	{0, 3, -4, 0, -0.000030, 0.000000, 0.000000, 0.000000, 0.000000, 0.000000},
	{0, 3, -3, 0, -0.000350, -0.010000, 0.000000, -0.020000, -0.060000, 0.000000},
	{0, 3, -2, -2, 0.000020, 0.000000, 0.000000, 0.000000, 0.000000, 0.000000},
	{0, 3, -2, 0, -0.004160, -0.150000, 0.000000, -0.150000, -0.750000, 0.000000},
	{0, 3, -2, 2, 0.000020, 0.000000, 0.000000, 0.000000, 0.000000, 0.000000},
	{0, 3, -1, -2, 0.000080, 0.000000, 0.000000, 0.000000, 0.010000, 0.000000},
	{0, 3, -1, 0, -0.051420, -1.820000, 0.030000, -0.940000, -9.240000, 0.000000},
	{0, 3, -1, 2, 0.000030, 0.000000, 0.000000, 0.000000, 0.000000, 0.000000},
	{0, 3, 0, -2, -0.000160, 0.000000, 0.000000, 0.000000, -0.030000, 0.000000},
	{0, 3, 0, 0, -0.101360, 1.160000, 0.040000, -0.200000, -18.190000, 0.000000},
	{0, 3, 0, 2, 0.000070, 0.000000, 0.000000, 0.000000, 0.010000, 0.000000},
	{0, 3, 1, 0, -0.017960, -0.300000, 0.000000, -0.330000, -3.230000, 0.000000},
	{0, 3, 1, 2, 0.000040, 0.000000, 0.000000, 0.000000, 0.000000, 0.000000},
	{0, 3, 2, 0, -0.000950, -0.010000, 0.000000, -0.030000, -0.170000, 0.000000},
	{0, 3, 3, 0, -0.000050, 0.000000, 0.000000, 0.000000, 0.000000, 0.000000},
	{0, 4, -2, 0, -0.000090, 0.000000, 0.000000, 0.000000, -0.020000, 0.000000},
	{0, 4, -1, 0, -0.001080, -0.040000, 0.000000, -0.020000, -0.260000, 0.000000},
	{0, 4, 0, 0, -0.001280, 0.060000, 0.000000, 0.000000, -0.300000, 0.000000},
	{0, 4, 1, 0, -0.000320, 0.000000, 0.000000, 0.000000, -0.080000, 0.000000},
	{0, 4, 2, 0, -0.000020, 0.000000, 0.000000, 0.000000, 0.000000, 0.000000},
	{0, 5, -1, 0, -0.000020, 0.000000, 0.000000, 0.000000, 0.000000, 0.000000},
	{1, -4, 0, 0, 0.000110, 0.000000, 0.000000, 0.000000, 0.030000, 0.040000},
	{1, -3, -2, 0, 0.000020, 0.000000, 0.000000, 0.000000, 0.000000, 0.000000},
	{1, -3, -1, 0, 0.000200, 0.000000, 0.000000, 0.000000, 0.040000, 0.080000},
	{1, -3, 0, 0, 0.002540, 0.030000, 0.000000, 0.000000, 0.450000, 0.990000},
	{1, -3, 1, 0, 0.000070, 0.000000, 0.000000, 0.000000, 0.010000, 0.030000},
	{1, -3, 2, 0, -0.000010, 0.000000, 0.000000, 0.000000, 0.000000, 0.000000},
	{1, -2, -3, 0, 0.000050, 0.000000, 0.000000, 0.000000, 0.000000, 0.020000},
	{1, -2, -2, 0, 0.000250, 0.000000, 0.000000, 0.010000, 0.030000, 0.100000},
	{1, -2, -1, -2, -0.000040, 0.000000, 0.000000, 0.000000, 0.000000, -0.020000},
	{1, -2, -1, 0, 0.002290, 0.060000, 0.000000, 0.050000, 0.270000, 0.890000},
	{1, -2, 0, -2, -0.000320, 0.000000, -0.010000, 0.000000, -0.040000, -0.120000},
	{1, -2, 0, 0, 0.043040, -0.010000, 0.000000, 0.060000, 5.140000, 16.740000},
	{1, -2, 0, 2, -0.000070, 0.000000, 0.000000, 0.000000, 0.000000, -0.030000},
	{1, -2, 1, -2, -0.000080, 0.000000, 0.000000, 0.000000, 0.000000, -0.030000},
	{1, -2, 1, 0, -0.000330, -0.160000, 0.000000, -0.010000, -0.040000, -0.130000},
	{1, -2, 2, 0, -0.000370, -0.030000, 0.000000, -0.020000, -0.040000, -0.140000},
	{1, -2, 3, 0, -0.000050, 0.000000, 0.000000, 0.000000, 0.000000, -0.020000},
	{1, -1, -5, 0, 0.000020, 0.000000, 0.000000, 0.000000, 0.000000, 0.000000},
	{1, -1, -4, 0, 0.000140, 0.000000, 0.000000, 0.010000, 0.000000, 0.050000},
	{1, -1, -3, -2, -0.000020, 0.000000, 0.000000, 0.000000, 0.000000, 0.000000},
	{1, -1, -3, 0, 0.000690, 0.020000, 0.000000, 0.040000, 0.040000, 0.270000},
	{1, -1, -3, 2, 0.000020, 0.000000, 0.000000, 0.000000, 0.000000, 0.000000},
	{1, -1, -2, -2, -0.000110, 0.000000, 0.000000, 0.000000, 0.000000, -0.040000},
	{1, -1, -2, 0, -0.006940, -0.250000, 0.000000, -0.230000, -0.420000, -2.700000},
	{1, -1, -2, 2, 0.000130, 0.000000, 0.000000, 0.000000, 0.000000, 0.050000},
	{1, -1, -1, -2, -0.001000, 0.000000, -0.040000, -0.020000, -0.060000, -0.390000},
	{1, -1, -1, 0, -0.136360, -3.240000, 0.190000, -2.410000, -8.170000, -53.020000},
	{1, -1, -1, 2, 0.000130, 0.000000, 0.000000, 0.000000, 0.000000, 0.050000},
	{1, -1, 0, -4, 0.000020, 0.000000, 0.000000, 0.000000, 0.000000, 0.000000},
	{1, -1, 0, -2, -0.012810, -0.130000, -0.570000, 0.000000, -0.770000, -4.980000},
	{1, -1, 0, 0, -0.556940, -40.230000, 1.700000, -0.010000, -33.620000, -216.550000},
	{1, -1, 0, 2, 0.001550, 0.090000, 0.070000, 0.000000, 0.090000, 0.600000},
	{1, -1, 1, -2, -0.002120, -0.020000, -0.090000, -0.040000, -0.130000, -0.830000},
	{1, -1, 1, 0, -0.120730, -6.320000, 0.250000, -2.380000, -7.230000, -46.940000},
	{1, -1, 1, 2, 0.000600, 0.030000, 0.030000, 0.010000, 0.040000, 0.230000},
	{1, -1, 2, -2, 0.000120, 0.000000, 0.000000, 0.000000, 0.000000, 0.050000},
	{1, -1, 2, 0, -0.014830, -0.720000, 0.030000, -0.560000, -0.890000, -5.770000},
	{1, -1, 2, 2, 0.000120, 0.000000, 0.000000, 0.000000, 0.000000, 0.050000},
	{1, -1, 3, -2, 0.000010, 0.000000, 0.000000, 0.000000, 0.000000, 0.000000},
	{1, -1, 3, 0, -0.001490, -0.070000, 0.000000, -0.080000, -0.090000, -0.580000},
	{1, -1, 3, 2, 0.000020, 0.000000, 0.000000, 0.000000, 0.000000, 0.000000},
	{1, -1, 4, 0, -0.000140, 0.000000, 0.000000, -0.010000, 0.000000, -0.050000},
	{1, -1, 5, 0, -0.000010, 0.000000, 0.000000, 0.000000, 0.000000, 0.000000},
	{1, 0, -6, 0, -0.000050, 0.000000, 0.000000, 0.000000, 0.000000, -0.020000},
	{1, 0, -5, -2, 0.000010, 0.000000, 0.000000, 0.000000, 0.000000, 0.000000},
	{1, 0, -5, 0, -0.000720, -0.020000, 0.000000, -0.060000, 0.000000, -0.280000},
	{1, 0, -4, -2, 0.000090, 0.000000, 0.000000, 0.000000, 0.000000, 0.040000},
	{1, 0, -4, 0, -0.009550, -0.280000, 0.010000, -0.700000, 0.000000, -3.710000},
	{1, 0, -4, 2, 0.000020, 0.000000, 0.000000, 0.000000, 0.000000, 0.000000},
	{1, 0, -3, -2, 0.000690, 0.020000, 0.030000, 0.040000, 0.000000, 0.270000},
	{1, 0, -3, 0, -0.128120, -3.660000, 0.130000, -7.030000, -0.050000, -49.820000},
	{1, 0, -3, 2, 0.000380, 0.060000, 0.020000, 0.030000, 0.000000, 0.140000},
	{1, 0, -2, -4, 0.000010, 0.000000, 0.000000, 0.000000, 0.000000, 0.000000},
	{1, 0, -2, -2, 0.002890, 0.140000, 0.120000, 0.110000, 0.000000, 1.120000},
	{1, 0, -2, 0, -1.752960, -48.870000, 1.670000, -64.280000, -0.510000, -681.600000},
	{1, 0, -2, 2, -0.001420, 0.050000, -0.070000, -0.050000, 0.000000, -0.550000},
	{1, 0, -1, -4, 0.000190, 0.000000, 0.020000, 0.000000, 0.000000, 0.070000},
	{1, 0, -1, -2, -0.023790, 0.120000, -1.090000, -0.420000, 0.000000, -9.250000},
	{1, 0, -1, 0, -18.584670, -437.660000, 18.910000, -346.510000, -1.000000, -7226.220000},
	{1, 0, -1, 2, 0.015980, 0.320000, 0.690000, 0.300000, 0.000000, 6.210000},
	{1, 0, -1, 4, -0.000110, 0.000000, 0.000000, 0.000000, 0.000000, -0.040000},
	{1, 0, 0, -4, 0.001230, 0.010000, 0.110000, 0.000000, 0.000000, 0.480000},
	{1, 0, 0, -2, -0.583320, -5.890000, -25.980000, -0.120000, 0.000000, -226.810000},
	{1, 0, 0, 0, -124.988060, -2831.880000, 136.180000, -86.600000, -2.680000, -48598.150000},
	{1, 0, 0, 2, 0.254290, 5.730000, 11.110000, 0.260000, 0.000000, 98.870000},
	{1, 0, 0, 4, -0.000540, -0.010000, -0.050000, 0.000000, 0.000000, -0.210000},
	{1, 0, 1, -4, 0.000110, 0.000000, 0.000000, 0.000000, 0.000000, 0.040000},
	{1, 0, 1, -2, -0.040120, -0.220000, -1.800000, -0.720000, 0.000000, -15.600000},
	{1, 0, 1, 0, -8.453080, -187.780000, 10.100000, -158.620000, 0.770000, -3286.750000},
	{1, 0, 1, 2, 0.044500, 0.980000, 1.940000, 0.840000, 0.000000, 17.300000},
	{1, 0, 1, 4, -0.000150, 0.000000, -0.010000, 0.000000, 0.000000, -0.060000},
	{1, 0, 2, -2, -0.000770, 0.030000, -0.030000, -0.030000, 0.000000, -0.300000},
	{1, 0, 2, 0, -0.583990, -12.360000, 0.750000, -21.520000, 0.130000, -227.070000},
	{1, 0, 2, 2, 0.005400, 0.120000, 0.240000, 0.200000, 0.000000, 2.100000},
	{1, 0, 2, 4, -0.000030, 0.000000, 0.000000, 0.000000, 0.000000, -0.010000},
	{1, 0, 3, -2, -0.000060, 0.000000, 0.000000, 0.000000, 0.000000, -0.020000},
	{1, 0, 3, 0, -0.040740, -0.810000, 0.060000, -2.240000, 0.020000, -15.840000},
	{1, 0, 3, 2, 0.000560, 0.010000, 0.020000, 0.030000, 0.000000, 0.220000},
	{1, 0, 4, 0, -0.002850, -0.050000, 0.000000, -0.210000, 0.000000, -1.110000},
	{1, 0, 4, 2, 0.000050, 0.000000, 0.000000, 0.000000, 0.000000, 0.020000},
	{1, 0, 5, 0, -0.000200, 0.000000, 0.000000, -0.020000, 0.000000, -0.080000},
	{1, 0, 6, 0, -0.000010, 0.000000, 0.000000, 0.000000, 0.000000, 0.000000},
	{1, 1, -5, 0, 0.000110, 0.000000, 0.000000, 0.010000, 0.000000, 0.040000},
	{1, 1, -4, -2, -0.000010, 0.000000, 0.000000, 0.000000, 0.000000, 0.000000},
	{1, 1, -4, 0, 0.001550, 0.020000, 0.000000, 0.110000, 0.090000, 0.600000},
	{1, 1, -3, -2, -0.000120, 0.000000, 0.000000, 0.000000, 0.000000, -0.050000},
	{1, 1, -3, 0, 0.022960, 0.300000, 0.000000, 1.260000, 1.380000, 8.930000},
	{1, 1, -3, 2, -0.000060, 0.020000, 0.000000, 0.000000, 0.000000, -0.020000},
	{1, 1, -2, -2, -0.000710, 0.000000, -0.030000, -0.030000, -0.040000, -0.270000},
	{1, 1, -2, 0, 0.349660, 5.360000, -0.110000, 12.830000, 20.950000, 135.950000},
	{1, 1, -2, 2, 0.000630, 0.000000, 0.030000, 0.020000, 0.040000, 0.250000},
	{1, 1, -1, -2, -0.000080, 0.000000, 0.000000, 0.000000, 0.000000, -0.030000},
	{1, 1, -1, 0, 1.077730, 9.380000, -1.150000, 21.490000, 64.240000, 418.880000},
	{1, 1, -1, 2, 0.000000, 0.030000, 0.000000, 0.000000, 0.000000, 0.000000},
	{1, 1, 0, -2, 0.000170, 0.030000, 0.000000, 0.070000, 0.000000, 0.070000},
	{1, 1, 0, 0, 17.955120, 6.590000, -11.640000, 21.840000, 1074.240000, 6981.340000},
	{1, 1, 0, 2, -0.035870, 0.000000, -1.580000, -0.050000, -2.150000, -13.950000},
	{1, 1, 0, 4, 0.000070, 0.000000, 0.000000, 0.000000, 0.000000, 0.030000},
	{1, 1, 1, -2, -0.001570, 0.360000, -0.040000, -0.040000, -0.070000, -0.560000},
	{1, 1, 1, 0, 1.261860, 1.830000, -0.900000, 24.500000, 75.500000, 490.640000},
	{1, 1, 1, 2, -0.006590, 0.000000, -0.290000, -0.130000, -0.390000, -2.560000},
	{1, 1, 1, 4, 0.000020, 0.000000, 0.000000, 0.000000, 0.000000, 0.000000},
	{1, 1, 2, -2, 0.000280, 0.030000, 0.010000, 0.000000, 0.020000, 0.110000},
	{1, 1, 2, 0, 0.092050, 0.220000, -0.070000, 3.460000, 5.510000, 35.790000},
	{1, 1, 2, 2, -0.000840, 0.000000, -0.040000, -0.030000, -0.050000, -0.330000},
	{1, 1, 3, -2, 0.000020, 0.000000, 0.000000, 0.000000, 0.000000, 0.000000},
	{1, 1, 3, 0, 0.006790, 0.020000, 0.000000, 0.380000, 0.410000, 2.640000},
	{1, 1, 3, 2, -0.000090, 0.000000, 0.000000, 0.000000, 0.000000, -0.040000},
	{1, 1, 4, 0, 0.000500, 0.000000, 0.000000, 0.040000, 0.030000, 0.200000},
	{1, 1, 5, 0, 0.000040, 0.000000, 0.000000, 0.000000, 0.000000, 0.010000},
	{1, 2, -4, 0, 0.000040, 0.000000, 0.000000, 0.000000, 0.000000, 0.010000},
	{1, 2, -3, 0, 0.000380, 0.020000, 0.000000, 0.020000, 0.050000, 0.150000},
	{1, 2, -2, 0, 0.003610, 0.160000, 0.000000, 0.130000, 0.430000, 1.400000},
	{1, 2, -1, 0, -0.003000, -0.180000, 0.000000, -0.050000, -0.360000, -1.160000},
	{1, 2, -1, 2, 0.000010, 0.000000, 0.000000, 0.000000, 0.000000, 0.000000},
	{1, 2, 0, -2, 0.000030, 0.000000, 0.000000, 0.000000, 0.010000, 0.010000},
	{1, 2, 0, 0, -0.039680, -0.610000, 0.040000, -0.070000, -4.750000, -15.430000},
	{1, 2, 0, 2, 0.000110, 0.000000, 0.000000, 0.000000, 0.010000, 0.040000},
	{1, 2, 1, -2, 0.000020, -0.010000, 0.000000, 0.000000, 0.000000, 0.000000},
	{1, 2, 1, 0, -0.008490, -0.160000, 0.000000, -0.170000, -1.020000, -3.300000},
	{1, 2, 1, 2, 0.000050, 0.000000, 0.000000, 0.000000, 0.000000, 0.020000},
	{1, 2, 2, 0, -0.001020, -0.020000, 0.000000, -0.040000, -0.120000, -0.400000},
	{1, 2, 2, 2, 0.000010, 0.000000, 0.000000, 0.000000, 0.000000, 0.000000},
	{1, 2, 3, 0, -0.000110, 0.000000, 0.000000, 0.000000, -0.010000, -0.040000},
	{1, 2, 4, 0, -0.000010, 0.000000, 0.000000, 0.000000, 0.000000, 0.000000},
	{1, 3, -2, 0, 0.000070, 0.000000, 0.000000, 0.000000, 0.010000, 0.030000},
	{1, 3, -1, 0, -0.000110, 0.000000, 0.000000, 0.000000, -0.020000, -0.040000},
	{1, 3, 0, -2, 0.000000, 0.020000, -0.010000, 0.010000, 0.020000, 0.000000},
	{1, 3, 0, 0, -0.000560, -0.010000, 0.000000, 0.000000, -0.100000, -0.220000},
	{1, 3, 1, 0, -0.000090, 0.000000, 0.000000, 0.000000, -0.020000, -0.030000},
	{1, 4, 0, 0, -0.000010, 0.000000, 0.000000, 0.000000, 0.000000, 0.000000},
	{2, -6, 0, 0, 0.000020, 0.000000, 0.000000, 0.000000, 0.000000, 0.000000},
	{2, -5, -2, 0, 0.000010, 0.000000, 0.000000, 0.000000, 0.000000, 0.000000},
	{2, -5, -1, 0, 0.000270, 0.000000, 0.000000, 0.000000, 0.080000, 0.000000},
	{2, -5, 0, 0, 0.000500, 0.020000, 0.000000, 0.000000, 0.150000, 0.000000},
	{2, -5, 1, 0, 0.000050, 0.000000, 0.000000, 0.000000, 0.010000, 0.000000},
	{2, -4, -3, 0, 0.000020, 0.000000, 0.000000, 0.000000, 0.000000, 0.000000},
	{2, -4, -2, 0, 0.000320, 0.010000, 0.000000, 0.010000, 0.080000, 0.000000},
	{2, -4, -1, 0, 0.008120, 0.240000, 0.000000, 0.150000, 1.940000, 0.000000},
	{2, -4, -1, 2, -0.000020, 0.000000, 0.000000, 0.000000, 0.000000, 0.000000},
	{2, -4, 0, -2, 0.000040, 0.000000, 0.000000, 0.000000, 0.000000, 0.000000},
	{2, -4, 0, 0, 0.013310, 0.580000, 0.000000, 0.020000, 3.180000, 0.000000},
	{2, -4, 0, 2, -0.000030, 0.000000, 0.000000, 0.000000, 0.000000, 0.000000},
	{2, -4, 1, -2, -0.000020, 0.000000, 0.000000, 0.000000, 0.000000, 0.000000},
	{2, -4, 1, 0, 0.001330, 0.060000, 0.000000, 0.030000, 0.320000, 0.000000},
	{2, -4, 2, 0, 0.000120, 0.000000, 0.000000, 0.000000, 0.030000, 0.000000},
	{2, -4, 3, 0, 0.000010, 0.000000, 0.000000, 0.000000, 0.000000, 0.000000},
	{2, -3, -4, 0, 0.000030, 0.000000, 0.000000, 0.000000, 0.000000, 0.000000},
	{2, -3, -3, 0, 0.000490, 0.010000, 0.000000, 0.030000, 0.090000, 0.000000},
	{2, -3, -2, -2, -0.000040, 0.000000, 0.000000, 0.000000, 0.000000, 0.000000},
	{2, -3, -2, 0, 0.009650, 0.260000, 0.000000, 0.350000, 1.730000, 0.000000},
	{2, -3, -2, 2, -0.000020, 0.000000, 0.000000, 0.000000, 0.000000, 0.000000},
	{2, -3, -1, -2, -0.000210, 0.000000, 0.000000, 0.000000, -0.040000, 0.000000},
	{2, -3, -1, 0, 0.246970, 6.330000, -0.030000, 4.520000, 44.320000, 0.000000},
	{2, -3, -1, 2, -0.000520, -0.010000, -0.020000, 0.000000, -0.090000, 0.000000},
	{2, -3, 0, -2, 0.001630, 0.000000, 0.070000, 0.000000, 0.290000, 0.000000},
	{2, -3, 0, 0, 0.339830, 13.410000, -0.120000, 0.740000, 60.980000, 0.000000},
	{2, -3, 0, 2, -0.000750, -0.030000, -0.030000, 0.000000, -0.130000, 0.000000},
	{2, -3, 1, -2, -0.000650, -0.020000, -0.030000, -0.010000, -0.120000, 0.000000},
	{2, -3, 1, 0, 0.033000, 1.420000, -0.020000, 0.670000, 5.920000, 0.000000},
	{2, -3, 1, 2, -0.000160, 0.000000, 0.000000, 0.000000, -0.030000, 0.000000},
	{2, -3, 2, -2, -0.000050, 0.000000, 0.000000, 0.000000, -0.010000, 0.000000},
	{2, -3, 2, 0, 0.002950, 0.140000, 0.000000, 0.110000, 0.530000, 0.000000},
	{2, -3, 2, 2, -0.000030, 0.000000, 0.000000, 0.000000, 0.000000, 0.000000},
	{2, -3, 3, 0, 0.000260, 0.010000, 0.000000, 0.010000, 0.050000, 0.000000},
	{2, -3, 4, 0, 0.000020, 0.000000, 0.000000, 0.000000, 0.000000, 0.000000},
	{2, -2, -5, 0, 0.000050, 0.000000, 0.000000, 0.000000, 0.000000, 0.000000},
	{2, -2, -4, -2, -0.000010, 0.000000, 0.000000, 0.000000, 0.000000, 0.000000},
	{2, -2, -4, 0, 0.000880, 0.010000, 0.000000, 0.060000, 0.100000, 0.000000},
	{2, -2, -3, -2, -0.000130, 0.000000, 0.000000, 0.000000, -0.020000, 0.000000},
	{2, -2, -3, 0, 0.015440, 0.290000, 0.000000, 0.840000, 1.850000, 0.000000},
	{2, -2, -2, -2, -0.001110, -0.030000, -0.050000, -0.040000, -0.130000, 0.000000},
	{2, -2, -2, 0, 0.294220, 6.880000, -0.030000, 10.730000, 35.210000, 0.000000},
	{2, -2, -2, 2, -0.000720, 0.000000, -0.030000, -0.030000, -0.090000, 0.000000},
	{2, -2, -1, -2, -0.004340, -0.200000, -0.190000, -0.080000, -0.520000, 0.000000},
	{2, -2, -1, 0, 7.371730, 165.380000, -1.060000, 134.790000, 881.890000, -0.040000},
	{2, -2, -1, 2, -0.015410, -0.330000, -0.690000, -0.290000, -1.840000, 0.000000},
	{2, -2, -1, 4, 0.000030, 0.000000, 0.000000, 0.000000, 0.000000, 0.000000},
	{2, -2, 0, -4, -0.000080, 0.000000, 0.000000, 0.000000, 0.000000, 0.000000},
	{2, -2, 0, -2, 0.063140, 0.430000, 2.820000, -0.040000, 7.550000, 0.000000},
	{2, -2, 0, 0, 8.050760, 289.140000, -3.140000, 21.090000, 962.910000, -0.060000},
	{2, -2, 0, 2, -0.018160, -0.620000, -0.810000, -0.120000, -2.170000, 0.000000},
	{2, -2, 0, 4, 0.000040, 0.000000, 0.000000, 0.000000, 0.000000, 0.000000},
	{2, -2, 1, -4, 0.000010, 0.000000, 0.000000, 0.000000, 0.000000, 0.000000},
	{2, -2, 1, -2, -0.016440, -0.380000, -0.740000, -0.300000, -1.970000, 0.000000},
	{2, -2, 1, 0, 0.751730, 29.040000, -0.430000, 15.470000, 89.900000, 0.000000},
	{2, -2, 1, 2, -0.003780, -0.140000, -0.170000, -0.090000, -0.450000, 0.000000},
	{2, -2, 1, 4, 0.000010, 0.000000, 0.000000, 0.000000, 0.000000, 0.000000},
	{2, -2, 2, -2, -0.001330, -0.030000, -0.060000, -0.050000, -0.160000, 0.000000},
	{2, -2, 2, 0, 0.064390, 2.630000, -0.050000, 2.500000, 7.700000, 0.000000},
	{2, -2, 2, 2, -0.000550, -0.020000, -0.020000, -0.020000, -0.070000, 0.000000},
	{2, -2, 3, -2, -0.000110, 0.000000, 0.000000, 0.000000, -0.010000, 0.000000},
	{2, -2, 3, 0, 0.005380, 0.230000, 0.000000, 0.310000, 0.640000, 0.000000},
	{2, -2, 3, 2, -0.000070, 0.000000, 0.000000, 0.000000, 0.000000, 0.000000},
	{2, -2, 4, 0, 0.000440, 0.020000, 0.000000, 0.030000, 0.050000, 0.000000},
	{2, -2, 5, 0, 0.000040, 0.000000, 0.000000, 0.000000, 0.000000, 0.000000},
	{2, -1, -6, 0, 0.000100, 0.000000, 0.000000, 0.010000, 0.000000, 0.000000},
	{2, -1, -5, -2, -0.000030, 0.000000, 0.000000, 0.000000, 0.000000, 0.000000},
	{2, -1, -5, 0, 0.001780, 0.010000, 0.000000, 0.160000, 0.110000, 0.000000},
	{2, -1, -4, -2, -0.000360, 0.000000, -0.020000, -0.030000, -0.020000, 0.000000},
	{2, -1, -4, 0, 0.029490, 0.410000, 0.000000, 2.150000, 1.770000, 0.000000},
	{2, -1, -4, 2, -0.000020, 0.000000, 0.000000, 0.000000, 0.000000, 0.000000},
	{2, -1, -3, -4, 0.000010, 0.000000, 0.000000, 0.000000, 0.000000, 0.000000},
	{2, -1, -3, -2, -0.003650, -0.080000, -0.160000, -0.200000, -0.220000, 0.000000},
	{2, -1, -3, 0, 0.478420, 8.720000, -0.050000, 26.150000, 28.630000, 0.000000},
	{2, -1, -3, 2, 0.000030, 0.000000, 0.000000, 0.000000, 0.000000, 0.000000},
	{2, -1, -2, -4, 0.000050, 0.000000, 0.000000, 0.000000, 0.000000, 0.000000},
	{2, -1, -2, -2, -0.028040, -0.740000, -1.250000, -1.030000, -1.680000, 0.000000},
	{2, -1, -2, 0, 8.605820, 187.040000, -1.140000, 313.850000, 515.030000, 0.020000},
	{2, -1, -2, 2, -0.021570, -0.210000, -0.970000, -0.790000, -1.290000, 0.000000},
	{2, -1, -2, 4, 0.000120, 0.000000, 0.010000, 0.000000, 0.000000, 0.000000},
	{2, -1, -1, -4, -0.000150, 0.000000, -0.010000, 0.000000, 0.000000, 0.000000},
	{2, -1, -1, -2, -0.061030, -3.570000, -2.720000, -1.220000, -3.650000, 0.000000},
	{2, -1, -1, 0, 205.443150, 4157.780000, -32.990000, 3751.430000, 12284.720000, -0.130000},
	{2, -1, -1, 2, -0.426240, -8.300000, -19.010000, -7.930000, -25.480000, 0.000000},
	{2, -1, -1, 4, 0.000930, 0.020000, 0.080000, 0.020000, 0.060000, 0.000000},
	{2, -1, 0, -4, -0.002860, -0.020000, -0.260000, 0.000000, -0.170000, 0.000000},
	{2, -1, 0, -2, 2.146190, 18.770000, 95.810000, -0.840000, 128.220000, 0.050000},
	{2, -1, 0, 0, 164.734580, 5378.280000, -77.430000, 545.710000, 9844.150000, -0.180000},
	{2, -1, 0, 2, -0.382150, -11.750000, -16.940000, -3.100000, -22.840000, 0.000000},
	{2, -1, 0, 4, 0.000890, 0.030000, 0.080000, 0.010000, 0.050000, 0.000000},
	{2, -1, 1, -4, 0.000180, 0.000000, 0.020000, 0.000000, 0.010000, 0.000000},
	{2, -1, 1, -2, -0.374530, -6.500000, -16.890000, -6.910000, -22.360000, 0.000000},
	{2, -1, 1, 0, 14.530780, 497.460000, -9.380000, 307.250000, 867.990000, 0.000000},
	{2, -1, 1, 2, -0.073730, -2.450000, -3.260000, -1.770000, -4.400000, 0.000000},
	{2, -1, 1, 4, 0.000250, 0.000000, 0.020000, 0.000000, 0.020000, 0.000000},
	{2, -1, 2, -4, 0.000010, 0.000000, 0.000000, 0.000000, 0.000000, 0.000000},
	{2, -1, 2, -2, -0.028870, -0.540000, -1.300000, -1.060000, -1.720000, 0.000000},
	{2, -1, 2, 0, 1.177040, 41.720000, -0.960000, 46.230000, 70.280000, 0.000000},
	{2, -1, 2, 2, -0.010070, -0.350000, -0.440000, -0.420000, -0.600000, 0.000000},
	{2, -1, 2, 4, 0.000050, 0.000000, 0.000000, 0.000000, 0.000000, 0.000000},
	{2, -1, 3, -2, -0.002320, -0.050000, -0.100000, -0.130000, -0.140000, 0.000000},
	{2, -1, 3, 0, 0.093200, 3.390000, -0.090000, 5.360000, 5.560000, 0.000000},
	{2, -1, 3, 2, -0.001170, -0.040000, -0.050000, -0.070000, -0.070000, 0.000000},
	{2, -1, 4, -2, -0.000190, 0.000000, 0.000000, -0.010000, -0.010000, 0.000000},
	{2, -1, 4, 0, 0.007300, 0.270000, 0.000000, 0.550000, 0.440000, 0.000000},
	{2, -1, 4, 2, -0.000120, 0.000000, 0.000000, 0.000000, 0.000000, 0.000000},
	{2, -1, 5, -2, -0.000010, 0.000000, 0.000000, 0.000000, 0.000000, 0.000000},
	{2, -1, 5, 0, 0.000570, 0.020000, 0.000000, 0.050000, 0.030000, 0.000000},
	{2, -1, 5, 2, -0.000010, 0.000000, 0.000000, 0.000000, 0.000000, 0.000000},
	{2, -1, 6, 0, 0.000040, 0.000000, 0.000000, 0.000000, 0.000000, 0.000000},
	{2, 0, -8, 0, 0.000030, 0.000000, 0.000000, 0.000000, 0.000000, 0.000000},
	{2, 0, -7, 0, 0.000360, 0.000000, 0.000000, 0.050000, 0.000000, 0.000000},
	{2, 0, -6, -2, -0.000110, 0.000000, 0.000000, -0.010000, 0.000000, 0.000000},
	{2, 0, -6, 0, 0.004970, 0.100000, 0.000000, 0.540000, 0.000000, 0.000000},
	{2, 0, -5, -2, -0.001110, -0.020000, -0.050000, -0.100000, 0.000000, 0.000000},
	{2, 0, -5, 0, 0.068500, 1.400000, -0.030000, 6.240000, 0.000000, 0.000000},
	{2, 0, -5, 2, -0.000070, 0.000000, 0.000000, 0.000000, 0.000000, 0.000000},
	{2, 0, -4, -4, 0.000050, 0.000000, 0.000000, 0.000000, 0.000000, 0.000000},
	{2, 0, -4, -2, -0.010770, -0.240000, -0.480000, -0.790000, 0.000000, 0.000000},
	{2, 0, -4, 0, 0.948270, 19.710000, -0.300000, 69.110000, 0.060000, 0.000000},
	{2, 0, -4, 2, -0.000540, 0.000000, -0.030000, -0.040000, 0.000000, 0.000000},
	{2, 0, -3, -4, 0.000240, 0.000000, 0.020000, 0.010000, 0.000000, 0.000000},
	{2, 0, -3, -2, -0.091540, -2.110000, -4.080000, -5.030000, 0.000000, 0.000000},
	{2, 0, -3, 0, 13.194000, 279.870000, -3.190000, 721.290000, 0.650000, 0.140000},
	{2, 0, -3, 2, 0.004670, 0.380000, 0.200000, 0.240000, 0.000000, 0.000000},
	{2, 0, -3, 4, -0.000030, 0.000000, 0.000000, 0.000000, 0.000000, 0.000000},
	{2, 0, -2, -4, 0.000370, 0.030000, 0.030000, 0.020000, 0.000000, 0.000000},
	{2, 0, -2, -2, -0.560650, -14.540000, -24.990000, -20.690000, -0.010000, 0.000000},
	{2, 0, -2, 0, 211.654870, 4685.540000, -42.060000, 7715.640000, 7.860000, 2.120000},
	{2, 0, -2, 2, -0.535720, -4.500000, -24.120000, -19.500000, 0.040000, -0.010000},
	{2, 0, -2, 4, 0.002820, 0.020000, 0.250000, 0.100000, 0.000000, 0.000000},
	{2, 0, -1, -6, 0.000030, 0.000000, 0.000000, 0.000000, 0.000000, 0.000000},
	{2, 0, -1, -4, -0.008500, 0.000000, -0.760000, -0.140000, 0.000000, 0.000000},
	{2, 0, -1, -2, 0.179030, -34.060000, 7.980000, 1.010000, 0.030000, 0.180000},
	{2, 0, -1, 0, 4586.430610, 87132.460000, -842.120000, 83586.180000, -191.170000, 20.310000},
	{2, 0, -1, 2, -9.366010, -173.580000, -417.660000, -173.700000, 0.480000, -0.060000},
	{2, 0, -1, 4, 0.019930, 0.360000, 1.780000, 0.390000, 0.000000, 0.000000},
	{2, 0, -1, 6, -0.000040, 0.000000, 0.000000, 0.000000, 0.000000, 0.000000},
	{2, 0, 0, -6, 0.000150, 0.000000, 0.020000, 0.000000, 0.000000, 0.000000},
	{2, 0, 0, -4, -0.075180, -0.700000, -6.720000, 0.060000, 0.000000, 0.000000},
	{2, 0, 0, -2, 55.178010, 530.970000, 2463.550000, -15.350000, -6.960000, 1.200000},
	{2, 0, 0, 0, 2369.912270, 69551.140000, -1472.500000, 10817.070000, -255.360000, 22.070000},
	{2, 0, 0, 2, -5.741700, -155.850000, -254.000000, -59.770000, 0.640000, -0.100000},
	{2, 0, 0, 4, 0.013720, 0.350000, 1.220000, 0.210000, 0.000000, 0.000000},
	{2, 0, 0, 6, -0.000030, 0.000000, 0.000000, 0.000000, 0.000000, 0.000000},
	{2, 0, 1, -6, 0.000010, 0.000000, 0.000000, 0.000000, 0.000000, 0.000000},
	{2, 0, 1, -4, 0.000560, 0.100000, 0.050000, 0.010000, 0.000000, 0.000000},
	{2, 0, 1, -2, -6.383250, -72.700000, -288.510000, -117.470000, 1.160000, 0.000000},
	{2, 0, 1, 0, 191.955750, 5619.270000, -153.090000, 4250.550000, -30.100000, 2.780000},
	{2, 0, 1, 2, -0.990230, -27.730000, -43.700000, -25.330000, 0.160000, -0.020000},
	{2, 0, 1, 4, 0.003440, 0.090000, 0.310000, 0.100000, 0.000000, 0.000000},
	{2, 0, 1, 6, -0.000010, 0.000000, 0.000000, 0.000000, 0.000000, 0.000000},
	{2, 0, 2, -4, 0.000080, 0.000000, 0.000000, 0.000000, 0.000000, 0.000000},
	{2, 0, 2, -2, -0.453800, -4.940000, -20.520000, -16.630000, 0.100000, 0.000000},
	{2, 0, 2, 0, 14.379640, 417.800000, -13.710000, 577.470000, -3.080000, 0.280000},
	{2, 0, 2, 2, -0.123860, -3.490000, -5.450000, -5.280000, 0.030000, 0.000000},
	{2, 0, 2, 4, 0.000590, 0.020000, 0.050000, 0.030000, 0.000000, 0.000000},
	{2, 0, 3, -4, 0.000020, 0.000000, 0.000000, 0.000000, 0.000000, 0.000000},
	{2, 0, 3, -2, -0.033360, -0.350000, -1.510000, -1.830000, 0.000000, 0.000000},
	{2, 0, 3, 0, 1.059490, 30.460000, -1.160000, 61.740000, -0.300000, 0.030000},
	{2, 0, 3, 2, -0.013320, -0.370000, -0.590000, -0.800000, 0.000000, 0.000000},
	{2, 0, 3, 4, 0.000080, 0.000000, 0.000000, 0.000000, 0.000000, 0.000000},
	{2, 0, 4, -2, -0.002470, -0.030000, -0.110000, -0.180000, 0.000000, 0.000000},
	{2, 0, 4, 0, 0.077650, 2.200000, -0.100000, 5.930000, -0.030000, 0.000000},
	{2, 0, 4, 2, -0.001310, -0.040000, -0.060000, -0.100000, 0.000000, 0.000000},
	{2, 0, 4, 4, 0.000010, 0.000000, 0.000000, 0.000000, 0.000000, 0.000000},
	{2, 0, 5, -2, -0.000180, 0.000000, 0.000000, -0.020000, 0.000000, 0.000000},
	{2, 0, 5, 0, 0.005680, 0.160000, 0.000000, 0.540000, 0.000000, 0.000000},
	{2, 0, 5, 2, -0.000120, 0.000000, 0.000000, -0.010000, 0.000000, 0.000000},
	{2, 0, 6, -2, -0.000010, 0.000000, 0.000000, 0.000000, 0.000000, 0.000000},
	{2, 0, 6, 0, 0.000410, 0.010000, 0.000000, 0.050000, 0.000000, 0.000000},
	{2, 0, 6, 2, -0.000010, 0.000000, 0.000000, 0.000000, 0.000000, 0.000000},
	{2, 0, 7, 0, 0.000030, 0.000000, 0.000000, 0.000000, 0.000000, 0.000000},
	{2, 1, -7, 0, 0.000010, 0.000000, 0.000000, 0.000000, 0.000000, 0.000000},
	{2, 1, -6, 0, 0.000150, 0.010000, 0.000000, 0.020000, 0.000000, 0.000000},
	{2, 1, -5, -2, -0.000030, 0.000000, 0.000000, 0.000000, 0.000000, 0.000000},
	{2, 1, -5, 0, 0.001730, 0.120000, 0.000000, 0.160000, 0.100000, 0.000000},
	{2, 1, -4, -2, -0.000200, -0.020000, 0.000000, -0.010000, -0.010000, 0.000000},
	{2, 1, -4, 0, 0.018190, 1.370000, -0.020000, 1.320000, 1.100000, 0.000000},
	{2, 1, -4, 2, -0.000030, 0.040000, 0.000000, 0.000000, 0.020000, 0.000000},
	{2, 1, -3, -2, -0.001160, -0.100000, -0.050000, -0.060000, -0.070000, 0.000000},
	{2, 1, -3, 0, 0.176240, 15.800000, -0.230000, 9.590000, 10.630000, 0.050000},
	{2, 1, -3, 2, -0.000240, 0.000000, -0.010000, -0.020000, -0.020000, 0.000000},
	{2, 1, -2, -4, 0.000020, 0.000000, 0.000000, 0.000000, 0.000000, 0.000000},
	{2, 1, -2, -2, -0.003460, -0.430000, -0.150000, -0.130000, -0.210000, 0.000000},
	{2, 1, -2, 0, 2.488970, 257.300000, -3.720000, 89.710000, 150.190000, 0.260000},
	{2, 1, -2, 2, -0.000010, -0.340000, 0.000000, 0.000000, 0.000000, 0.000000},
	{2, 1, -1, -4, 0.000170, 0.000000, 0.020000, 0.000000, 0.010000, 0.000000},
	{2, 1, -1, -2, -0.002280, 0.760000, -0.110000, -0.050000, -0.130000, 0.000000},
	{2, 1, -1, 0, -28.398100, 915.460000, -16.700000, -528.730000, -1693.300000, -0.380000},
	{2, 1, -1, 2, 0.067420, -1.630000, 3.040000, 1.290000, 4.020000, 0.000000},
	{2, 1, -1, 4, -0.000160, 0.000000, -0.010000, 0.000000, 0.000000, 0.000000},
	{2, 1, 0, -4, 0.001980, 0.030000, 0.180000, 0.000000, 0.120000, 0.000000},
	{2, 1, 0, -2, -1.437240, -23.320000, -64.110000, -0.160000, -86.030000, -0.040000},
	{2, 1, 0, 0, -24.359100, -661.000000, 29.130000, -128.060000, -1457.610000, -5.210000},
	{2, 1, 0, 2, 0.065410, 1.460000, 2.860000, 0.750000, 3.910000, 0.030000},
	{2, 1, 0, 4, -0.000170, 0.000000, -0.020000, 0.000000, -0.010000, 0.000000},
	{2, 1, 1, -4, 0.000030, 0.000000, 0.000000, 0.000000, 0.000000, 0.000000},
	{2, 1, 1, -2, 0.084720, -0.380000, 3.850000, 1.590000, 5.050000, 0.000000},
	{2, 1, 1, 0, -2.914640, -100.960000, 4.260000, -66.130000, -174.490000, -0.750000},
	{2, 1, 1, 2, 0.016050, 0.510000, 0.700000, 0.420000, 0.960000, 0.000000},
	{2, 1, 1, 4, -0.000060, 0.000000, 0.000000, 0.000000, 0.000000, 0.000000},
	{2, 1, 2, -2, 0.008890, 0.070000, 0.400000, 0.330000, 0.530000, 0.000000},
	{2, 1, 2, 0, -0.290230, -11.130000, 0.470000, -11.800000, -17.380000, -0.080000},
	{2, 1, 2, 2, 0.002620, 0.100000, 0.110000, 0.110000, 0.160000, 0.000000},
	{2, 1, 2, 4, -0.000010, 0.000000, 0.000000, 0.000000, 0.000000, 0.000000},
	{2, 1, 3, -2, 0.000850, 0.010000, 0.040000, 0.050000, 0.050000, 0.000000},
	{2, 1, 3, 0, -0.026760, -1.080000, 0.050000, -1.570000, -1.600000, 0.000000},
	{2, 1, 3, 2, 0.000350, 0.010000, 0.020000, 0.020000, 0.020000, 0.000000},
	{2, 1, 4, -2, 0.000080, 0.000000, 0.000000, 0.000000, 0.000000, 0.000000},
	{2, 1, 4, 0, -0.002360, -0.100000, 0.000000, -0.180000, -0.140000, 0.000000},
	{2, 1, 4, 2, 0.000040, 0.000000, 0.000000, 0.000000, 0.000000, 0.000000},
	{2, 1, 5, 0, -0.000200, 0.000000, 0.000000, -0.020000, -0.010000, 0.000000},
	{2, 1, 6, 0, -0.000020, 0.000000, 0.000000, 0.000000, 0.000000, 0.000000},
	{2, 2, -5, 0, -0.000020, 0.000000, 0.000000, 0.000000, 0.000000, 0.000000},
	{2, 2, -4, 0, -0.000490, 0.000000, 0.000000, -0.040000, -0.060000, 0.000000},
	{2, 2, -3, -2, 0.000040, 0.000000, 0.000000, 0.000000, 0.000000, 0.000000},
	{2, 2, -3, 0, -0.009440, -0.260000, 0.000000, -0.530000, -1.140000, 0.000000},
	{2, 2, -3, 2, 0.000020, 0.000000, 0.000000, 0.000000, 0.000000, 0.000000},
	{2, 2, -2, -2, 0.000060, 0.000000, 0.000000, 0.000000, 0.000000, 0.000000},
	{2, 2, -2, 0, -0.249900, -10.760000, 0.110000, -9.200000, -29.880000, -0.020000},
	{2, 2, -2, 2, 0.000600, 0.020000, 0.030000, 0.020000, 0.070000, 0.000000},
	{2, 2, -1, -4, 0.000020, 0.000000, 0.000000, 0.000000, 0.000000, 0.000000},
	{2, 2, -1, -2, -0.006540, -0.240000, -0.290000, -0.090000, -0.780000, 0.000000},
	{2, 2, -1, 0, -2.521380, -84.660000, 0.740000, -46.070000, -302.130000, 0.070000},
	{2, 2, -1, 2, 0.005150, 0.170000, 0.230000, 0.100000, 0.620000, 0.000000},
	{2, 2, -1, 4, -0.000010, 0.000000, 0.000000, 0.000000, 0.000000, 0.000000},
	{2, 2, 0, -4, 0.000040, 0.000000, 0.000000, 0.000000, 0.000000, 0.000000},
	{2, 2, 0, -2, -0.023490, -0.290000, -0.900000, 0.490000, -2.750000, 0.040000},
	{2, 2, 0, 0, -0.185760, -6.480000, 0.330000, -6.560000, -22.260000, 0.390000},
	{2, 2, 0, 2, 0.000960, 0.030000, 0.040000, 0.030000, 0.110000, 0.000000},
	{2, 2, 1, -2, -0.002000, -0.120000, -0.070000, 0.000000, -0.230000, 0.000000},
	{2, 2, 1, 0, -0.013430, -0.460000, 0.030000, -0.710000, -1.610000, 0.060000},
	{2, 2, 1, 2, 0.000120, 0.000000, 0.000000, 0.000000, 0.010000, 0.000000},
	{2, 2, 2, -2, -0.000140, 0.000000, 0.000000, 0.000000, -0.020000, 0.000000},
	{2, 2, 2, 0, -0.000660, -0.010000, 0.000000, -0.060000, -0.080000, 0.000000},
	{2, 2, 3, -2, -0.000010, 0.000000, 0.000000, 0.000000, 0.000000, 0.000000},
	{2, 3, -3, 0, -0.000090, 0.000000, 0.000000, 0.000000, -0.020000, 0.000000},
	{2, 3, -2, 0, -0.000930, -0.060000, 0.000000, -0.030000, -0.170000, 0.000000},
	{2, 3, -1, -2, -0.000030, 0.000000, 0.000000, 0.000000, 0.000000, 0.000000},
	{2, 3, -1, 0, -0.001880, -0.120000, 0.000000, -0.030000, -0.340000, 0.000000},
	{2, 3, 0, -2, 0.000070, 0.000000, 0.000000, 0.000000, 0.020000, 0.000000},
	{2, 3, 0, 0, 0.000380, 0.030000, 0.000000, 0.020000, 0.070000, 0.000000},
	{2, 3, 1, -2, 0.000020, 0.000000, 0.000000, 0.000000, 0.000000, 0.000000},
	{2, 3, 1, 0, 0.000040, 0.000000, 0.000000, 0.000000, 0.000000, 0.000000},
	{2, 4, -2, 0, -0.000010, 0.000000, 0.000000, 0.000000, 0.000000, 0.000000},
	{2, 4, -1, 0, -0.000010, 0.000000, 0.000000, 0.000000, 0.000000, 0.000000},
	{3, -4, -1, 0, -0.000020, 0.000000, 0.000000, 0.000000, 0.000000, 0.000000},
	{3, -4, 0, 0, 0.000020, 0.000000, 0.000000, 0.000000, 0.000000, 0.000000},
	{3, -3, -2, 0, -0.000170, 0.000000, 0.000000, 0.000000, -0.030000, -0.070000},
	{3, -3, -1, 0, -0.000530, -0.020000, 0.000000, 0.000000, -0.090000, -0.210000},
	{3, -3, 0, -2, -0.000050, 0.000000, 0.000000, 0.000000, 0.000000, -0.020000},
	{3, -3, 0, 0, 0.000300, 0.000000, 0.000000, 0.000000, 0.050000, 0.120000},
	{3, -3, 1, 0, 0.000030, 0.000000, 0.000000, 0.000000, 0.000000, 0.010000},
	{3, -2, -3, 0, -0.000140, 0.000000, 0.000000, 0.000000, -0.020000, -0.060000},
	{3, -2, -2, 0, -0.003990, -0.100000, 0.000000, -0.150000, -0.480000, -1.550000},
	{3, -2, -1, -2, -0.000080, 0.000000, 0.000000, 0.000000, 0.000000, -0.030000},
	{3, -2, -1, 0, -0.011820, -0.500000, 0.000000, -0.230000, -1.410000, -4.600000},
	{3, -2, -1, 2, 0.000030, 0.000000, 0.000000, 0.000000, 0.000000, 0.010000},
	{3, -2, 0, -2, -0.001020, -0.020000, -0.050000, 0.000000, -0.120000, -0.400000},
	{3, -2, 0, 0, 0.005180, 0.050000, 0.000000, -0.050000, 0.620000, 2.010000},
	{3, -2, 1, -2, -0.000040, 0.000000, 0.000000, 0.000000, 0.000000, -0.020000},
	{3, -2, 1, 0, 0.000370, 0.000000, 0.000000, 0.000000, 0.040000, 0.150000},
	{3, -1, -4, 0, -0.000130, 0.000000, 0.000000, 0.000000, 0.000000, -0.050000},
	{3, -1, -3, 0, -0.002970, -0.060000, 0.000000, -0.160000, -0.180000, -1.160000},
	{3, -1, -2, 0, -0.083110, -1.910000, 0.020000, -3.040000, -4.980000, -32.320000},
	{3, -1, -2, 2, 0.000200, 0.000000, 0.000000, 0.000000, 0.010000, 0.080000},
	{3, -1, -1, -2, -0.001890, -0.020000, -0.080000, -0.030000, -0.110000, -0.730000},
	{3, -1, -1, 0, -0.231410, -9.240000, 0.190000, -4.480000, -13.780000, -89.980000},
	{3, -1, -1, 2, 0.000750, 0.030000, 0.030000, 0.020000, 0.050000, 0.290000},
	{3, -1, 0, -4, 0.000020, 0.000000, 0.000000, 0.000000, 0.000000, 0.000000},
	{3, -1, 0, -2, -0.019480, -0.340000, -0.870000, 0.000000, -1.160000, -7.570000},
	{3, -1, 0, 0, 0.065070, -0.180000, 0.160000, -1.040000, 3.930000, 25.300000},
	{3, -1, 0, 2, 0.000200, 0.020000, 0.000000, 0.000000, 0.010000, 0.080000},
	{3, -1, 1, -2, -0.000840, 0.000000, -0.040000, -0.010000, -0.050000, -0.330000},
	{3, -1, 1, 0, 0.003300, -0.250000, 0.030000, -0.050000, 0.210000, 1.280000},
	{3, -1, 1, 2, 0.000050, 0.000000, 0.000000, 0.000000, 0.000000, 0.020000},
	{3, -1, 2, -2, -0.000040, 0.000000, 0.000000, 0.000000, 0.000000, -0.020000},
	{3, -1, 2, 0, -0.000110, -0.050000, 0.000000, -0.010000, 0.000000, -0.040000},
	{3, -1, 2, 2, 0.000010, 0.000000, 0.000000, 0.000000, 0.000000, 0.000000},
	{3, -1, 3, 0, -0.000050, 0.000000, 0.000000, 0.000000, 0.000000, -0.020000},
	{3, 0, -5, 0, -0.000050, 0.000000, 0.000000, 0.000000, 0.000000, -0.020000},
	{3, 0, -4, -2, 0.000010, 0.000000, 0.000000, 0.000000, 0.000000, 0.000000},
	{3, 0, -4, 0, -0.001740, 0.000000, 0.000000, -0.130000, 0.000000, -0.680000},
	{3, 0, -3, -2, 0.000110, 0.000000, 0.000000, 0.000000, 0.000000, 0.040000},
	{3, 0, -3, 0, -0.044420, -0.910000, 0.000000, -2.430000, -0.030000, -17.270000},
	{3, 0, -3, 2, 0.000110, 0.000000, 0.000000, 0.000000, 0.000000, 0.040000},
	{3, 0, -2, -2, -0.000280, 0.020000, -0.010000, 0.000000, 0.000000, -0.110000},
	{3, 0, -2, 0, -1.224120, -28.100000, 0.420000, -44.730000, -0.150000, -475.970000},
	{3, 0, -2, 2, 0.002980, 0.070000, 0.130000, 0.110000, 0.000000, 1.160000},
	{3, 0, -2, 4, -0.000010, 0.000000, 0.000000, 0.000000, 0.000000, 0.000000},
	{3, 0, -1, -4, 0.000060, 0.000000, 0.000000, 0.000000, 0.000000, 0.020000},
	{3, 0, -1, -2, -0.029790, -0.390000, -1.330000, -0.540000, 0.000000, -11.590000},
	{3, 0, -1, 0, -3.209680, -121.620000, 3.090000, -62.390000, 1.610000, -1248.010000},
	{3, 0, -1, 2, 0.012150, 0.480000, 0.530000, 0.250000, 0.000000, 4.720000},
	{3, 0, -1, 4, -0.000040, 0.000000, 0.000000, 0.000000, 0.000000, -0.010000},
	{3, 0, 0, -4, 0.000250, 0.000000, 0.020000, 0.000000, 0.000000, 0.100000},
	{3, 0, 0, -2, -0.253040, -3.600000, -11.270000, 0.100000, 0.080000, -98.390000},
	{3, 0, 0, 0, 0.404230, -12.920000, 2.280000, -14.170000, 1.050000, 157.170000},
	{3, 0, 0, 2, 0.003750, 0.240000, 0.160000, 0.110000, 0.000000, 1.460000},
	{3, 0, 0, 4, -0.000020, 0.000000, 0.000000, 0.000000, 0.000000, 0.000000},
	{3, 0, 1, -4, 0.000050, 0.000000, 0.000000, 0.000000, 0.000000, 0.020000},
	{3, 0, 1, -2, -0.010620, -0.050000, -0.470000, -0.180000, 0.000000, -4.130000},
	{3, 0, 1, 0, 0.000370, -3.590000, 0.360000, -1.360000, 0.180000, 0.140000},
	{3, 0, 1, 2, 0.000830, 0.060000, 0.030000, 0.030000, 0.000000, 0.320000},
	{3, 0, 2, -2, -0.000510, 0.000000, -0.020000, -0.020000, 0.000000, -0.200000},
	{3, 0, 2, 0, -0.003890, -0.500000, 0.040000, -0.260000, 0.020000, -1.510000},
	{3, 0, 2, 2, 0.000140, 0.000000, 0.000000, 0.000000, 0.000000, 0.050000},
	{3, 0, 3, -2, -0.000020, 0.000000, 0.000000, 0.000000, 0.000000, 0.000000},
	{3, 0, 3, 0, -0.000620, -0.050000, 0.000000, -0.040000, 0.000000, -0.240000},
	{3, 0, 3, 2, 0.000020, 0.000000, 0.000000, 0.000000, 0.000000, 0.000000},
	{3, 0, 4, 0, -0.000070, 0.000000, 0.000000, 0.000000, 0.000000, -0.030000},
	{3, 1, -5, 0, -0.000060, 0.000000, 0.000000, 0.000000, 0.000000, -0.020000},
	{3, 1, -4, 0, -0.000590, -0.020000, 0.000000, -0.040000, -0.040000, -0.230000},
	{3, 1, -3, -2, 0.000020, 0.000000, 0.000000, 0.000000, 0.000000, 0.000000},
	{3, 1, -3, 0, -0.006230, -0.300000, 0.000000, -0.340000, -0.370000, -2.420000},
	{3, 1, -3, 2, 0.000020, 0.000000, 0.000000, 0.000000, 0.000000, 0.000000},
	{3, 1, -2, -2, 0.000010, 0.000000, 0.000000, 0.000000, 0.000000, 0.000000},
	{3, 1, -2, 0, -0.041890, -2.510000, 0.020000, -1.500000, -2.520000, -16.290000},
	{3, 1, -2, 2, 0.000070, 0.000000, 0.000000, 0.000000, 0.000000, 0.030000},
	{3, 1, -1, -2, 0.001160, 0.020000, 0.050000, 0.020000, 0.070000, 0.450000},
	{3, 1, -1, 0, 0.273770, 5.060000, -0.240000, 5.220000, 16.360000, 106.450000},
	{3, 1, -1, 2, -0.001380, -0.020000, -0.060000, -0.030000, -0.080000, -0.530000},
	{3, 1, 0, -2, 0.008910, 0.140000, 0.400000, -0.010000, 0.530000, 3.460000},
	{3, 1, 0, 0, 0.149900, 4.450000, -0.270000, 1.610000, 8.950000, 58.290000},
	{3, 1, 0, 2, -0.000960, -0.030000, -0.040000, -0.010000, -0.060000, -0.370000},
	{3, 1, 1, -2, 0.000200, 0.000000, 0.000000, 0.000000, 0.010000, 0.080000},
	{3, 1, 1, 0, 0.022440, 0.700000, -0.040000, 0.590000, 1.340000, 8.730000},
	{3, 1, 1, 2, -0.000220, 0.000000, 0.000000, 0.000000, -0.010000, -0.090000},
	{3, 1, 2, -2, -0.000010, 0.000000, 0.000000, 0.000000, 0.000000, 0.000000},
	{3, 1, 2, 0, 0.002560, 0.080000, 0.000000, 0.110000, 0.150000, 1.000000},
	{3, 1, 2, 2, -0.000040, 0.000000, 0.000000, 0.000000, 0.000000, -0.010000},
	{3, 1, 3, 0, 0.000260, 0.000000, 0.000000, 0.020000, 0.020000, 0.100000},
	{3, 1, 4, 0, 0.000020, 0.000000, 0.000000, 0.000000, 0.000000, 0.000000},
	{3, 2, -4, 0, -0.000020, 0.000000, 0.000000, 0.000000, 0.000000, 0.000000},
	{3, 2, -3, 0, -0.000200, 0.000000, 0.000000, -0.010000, -0.020000, -0.080000},
	{3, 2, -2, 0, -0.000360, -0.060000, 0.000000, -0.010000, -0.040000, -0.140000},
	{3, 2, -1, -2, -0.000010, 0.000000, 0.000000, 0.000000, 0.000000, 0.000000},
	{3, 2, -1, 0, -0.001270, 0.070000, 0.000000, -0.030000, -0.150000, -0.490000},
	{3, 2, 0, -2, -0.000090, 0.000000, 0.000000, 0.000000, -0.020000, -0.040000},
	{3, 2, 0, 0, -0.001910, -0.050000, 0.000000, -0.020000, -0.230000, -0.740000},
	{3, 2, 0, 2, 0.000010, 0.000000, 0.000000, 0.000000, 0.000000, 0.000000},
	{3, 2, 1, 0, -0.000390, -0.010000, 0.000000, 0.000000, -0.050000, -0.150000},
	{3, 2, 2, 0, -0.000060, 0.000000, 0.000000, 0.000000, 0.000000, -0.020000},
	{3, 3, -3, 0, 0.000000, 0.000000, 0.000000, 0.000000, -0.020000, -0.030000},
	{3, 3, -2, -2, 0.000000, -0.030000, 0.010000, -0.030000, 0.000000, -0.080000},
	{3, 3, -2, 0, 0.000040, 0.000000, 0.000000, 0.000000, 0.000000, 0.010000},
	{3, 3, -1, 0, -0.000140, 0.000000, 0.000000, 0.000000, -0.020000, -0.050000},
	{3, 3, 0, -2, -0.000020, -0.090000, 0.070000, -0.080000, -0.080000, 0.050000},
	{3, 3, 0, 0, -0.000020, 0.000000, 0.000000, 0.000000, 0.000000, 0.000000},
	{4, -5, -2, 0, 0.000010, 0.000000, 0.000000, 0.000000, 0.000000, 0.000000},
	{4, -5, -1, 0, 0.000040, 0.000000, 0.000000, 0.000000, 0.010000, 0.000000},
	{4, -5, 0, 0, 0.000030, 0.000000, 0.000000, 0.000000, 0.000000, 0.000000},
	{4, -4, -3, 0, 0.000010, 0.000000, 0.000000, 0.000000, 0.000000, 0.000000},
	{4, -4, -2, 0, 0.000330, 0.020000, 0.000000, 0.010000, 0.080000, 0.000000},
	{4, -4, -1, 0, 0.000860, 0.050000, 0.000000, 0.020000, 0.210000, 0.000000},
	{4, -4, 0, 0, 0.000540, 0.040000, 0.000000, 0.000000, 0.130000, 0.000000},
	{4, -4, 1, 0, 0.000090, 0.000000, 0.000000, 0.000000, 0.020000, 0.000000},
	{4, -4, 2, 0, 0.000010, 0.000000, 0.000000, 0.000000, 0.000000, 0.000000},
	{4, -3, -3, 0, 0.000270, 0.010000, 0.000000, 0.010000, 0.050000, 0.000000},
	{4, -3, -2, 0, 0.007550, 0.330000, 0.000000, 0.280000, 1.350000, 0.000000},
	{4, -3, -2, 2, -0.000040, 0.000000, 0.000000, 0.000000, 0.000000, 0.000000},
	{4, -3, -1, -2, 0.000040, 0.000000, 0.000000, 0.000000, 0.000000, 0.000000},
	{4, -3, -1, 0, 0.017410, 0.970000, -0.010000, 0.360000, 3.120000, 0.000000},
	{4, -3, -1, 2, -0.000090, 0.000000, 0.000000, 0.000000, -0.020000, 0.000000},
	{4, -3, 0, -2, 0.000070, 0.000000, 0.000000, 0.000000, 0.010000, 0.000000},
	{4, -3, 0, 0, 0.009710, 0.650000, 0.000000, 0.110000, 1.740000, 0.000000},
	{4, -3, 0, 2, -0.000060, 0.000000, 0.000000, 0.000000, 0.000000, 0.000000},
	{4, -3, 1, -2, -0.000030, 0.000000, 0.000000, 0.000000, 0.000000, 0.000000},
	{4, -3, 1, 0, 0.001600, 0.110000, 0.000000, 0.040000, 0.290000, 0.000000},
	{4, -3, 1, 2, -0.000010, 0.000000, 0.000000, 0.000000, 0.000000, 0.000000},
	{4, -3, 2, 0, 0.000200, 0.010000, 0.000000, 0.000000, 0.040000, 0.000000},
	{4, -3, 3, 0, 0.000020, 0.000000, 0.000000, 0.000000, 0.000000, 0.000000},
	{4, -2, -5, 0, -0.000020, 0.000000, 0.000000, 0.000000, 0.000000, 0.000000},
	{4, -2, -4, 0, -0.000020, 0.000000, 0.000000, 0.000000, 0.000000, 0.000000},
	{4, -2, -3, 0, 0.005600, 0.270000, 0.000000, 0.310000, 0.670000, 0.000000},
	{4, -2, -3, 2, -0.000040, 0.000000, 0.000000, 0.000000, 0.000000, 0.000000},
	{4, -2, -2, -2, 0.000020, 0.000000, 0.000000, 0.000000, 0.000000, 0.000000},
	{4, -2, -2, 0, 0.157810, 6.460000, -0.060000, 5.770000, 18.870000, 0.000000},
	{4, -2, -2, 2, -0.000900, -0.040000, -0.040000, -0.030000, -0.110000, 0.000000},
	{4, -2, -1, -2, 0.001080, 0.000000, 0.050000, 0.020000, 0.130000, 0.000000},
	{4, -2, -1, 0, 0.308740, 16.370000, -0.230000, 6.490000, 36.900000, 0.000000},
	{4, -2, -1, 2, -0.001600, -0.080000, -0.070000, -0.040000, -0.190000, 0.000000},
	{4, -2, 0, -2, 0.000910, 0.070000, 0.040000, -0.020000, 0.110000, 0.000000},
	{4, -2, 0, 0, 0.152270, 9.620000, -0.170000, 1.880000, 18.190000, 0.010000},
	{4, -2, 0, 2, -0.000890, -0.050000, -0.040000, -0.020000, -0.110000, 0.000000},
	{4, -2, 1, -2, -0.000520, -0.020000, -0.020000, -0.010000, -0.060000, 0.000000},
	{4, -2, 1, 0, 0.024110, 1.580000, -0.030000, 0.660000, 2.880000, 0.000000},
	{4, -2, 1, 2, -0.000210, -0.010000, 0.000000, 0.000000, -0.020000, 0.000000},
	{4, -2, 2, -2, -0.000090, 0.000000, 0.000000, 0.000000, -0.010000, 0.000000},
	{4, -2, 2, 0, 0.002900, 0.200000, 0.000000, 0.130000, 0.350000, 0.000000},
	{4, -2, 2, 2, -0.000040, 0.000000, 0.000000, 0.000000, 0.000000, 0.000000},
	{4, -2, 3, -2, -0.000010, 0.000000, 0.000000, 0.000000, 0.000000, 0.000000},
	{4, -2, 3, 0, 0.000310, 0.020000, 0.000000, 0.020000, 0.040000, 0.000000},
	{4, -2, 4, 0, 0.000030, 0.000000, 0.000000, 0.000000, 0.000000, 0.000000},
	{4, -1, -6, 0, -0.000050, 0.000000, 0.000000, 0.000000, 0.000000, 0.000000},
	{4, -1, -5, 0, -0.000340, -0.010000, 0.000000, -0.030000, -0.020000, 0.000000},
	{4, -1, -4, -2, 0.000040, 0.000000, 0.000000, 0.000000, 0.000000, 0.000000},
	{4, -1, -4, 0, -0.000200, 0.000000, 0.000000, -0.010000, -0.010000, 0.000000},
	{4, -1, -3, -2, 0.000070, 0.000000, 0.000000, 0.000000, 0.000000, 0.000000},
	{4, -1, -3, 0, 0.099820, 4.580000, -0.040000, 5.460000, 5.980000, 0.020000},
	{4, -1, -3, 2, -0.000780, -0.030000, -0.040000, -0.040000, -0.050000, 0.000000},
	{4, -1, -2, -4, 0.000010, 0.000000, 0.000000, 0.000000, 0.000000, 0.000000},
	{4, -1, -2, -2, 0.000430, 0.000000, 0.020000, 0.020000, 0.030000, 0.000000},
	{4, -1, -2, 0, 2.731980, 106.730000, -1.040000, 99.830000, 163.200000, 0.110000},
	{4, -1, -2, 2, -0.015330, -0.590000, -0.680000, -0.570000, -0.920000, 0.000000},
	{4, -1, -2, 4, 0.000060, 0.000000, 0.000000, 0.000000, 0.000000, 0.000000},
	{4, -1, -1, -4, 0.000020, 0.000000, 0.000000, 0.000000, 0.000000, 0.000000},
	{4, -1, -1, -2, 0.022890, 0.270000, 1.020000, 0.410000, 1.360000, 0.020000},
	{4, -1, -1, 0, 4.374160, 221.000000, -3.710000, 93.870000, 260.990000, -0.050000},
	{4, -1, -1, 2, -0.022730, -1.120000, -1.000000, -0.560000, -1.360000, 0.000000},
	{4, -1, -1, 4, 0.000080, 0.000000, 0.000000, 0.000000, 0.000000, 0.000000},
	{4, -1, 0, -4, -0.000010, 0.000000, 0.000000, 0.000000, 0.000000, 0.000000},
	{4, -1, 0, -2, 0.006660, 0.750000, 0.260000, -0.270000, 0.390000, 0.020000},
	{4, -1, 0, 0, 1.870830, 111.800000, -2.350000, 25.650000, 111.490000, 0.160000},
	{4, -1, 0, 2, -0.011140, -0.640000, -0.490000, -0.230000, -0.660000, 0.000000},
	{4, -1, 0, 4, 0.000040, 0.000000, 0.000000, 0.000000, 0.000000, 0.000000},
	{4, -1, 1, -4, -0.000060, 0.000000, 0.000000, 0.000000, 0.000000, 0.000000},
	{4, -1, 1, -2, -0.007320, -0.280000, -0.330000, -0.180000, -0.440000, 0.000000},
	{4, -1, 1, 0, 0.282510, 17.390000, -0.420000, 8.050000, 16.820000, 0.020000},
	{4, -1, 1, 2, -0.002510, -0.150000, -0.110000, -0.080000, -0.150000, 0.000000},
	{4, -1, 1, 4, 0.000010, 0.000000, 0.000000, 0.000000, 0.000000, 0.000000},
	{4, -1, 2, -2, -0.001210, -0.050000, -0.050000, -0.050000, -0.070000, 0.000000},
	{4, -1, 2, 0, 0.032740, 2.050000, -0.060000, 1.490000, 1.950000, 0.000000},
	{4, -1, 2, 2, -0.000410, -0.030000, -0.020000, -0.020000, -0.020000, 0.000000},
	{4, -1, 3, -2, -0.000140, 0.000000, 0.000000, 0.000000, 0.000000, 0.000000},
	{4, -1, 3, 0, 0.003360, 0.210000, 0.000000, 0.210000, 0.200000, 0.000000},
	{4, -1, 3, 2, -0.000060, 0.000000, 0.000000, 0.000000, 0.000000, 0.000000},
	{4, -1, 4, -2, -0.000010, 0.000000, 0.000000, 0.000000, 0.000000, 0.000000},
	{4, -1, 4, 0, 0.000320, 0.020000, 0.000000, 0.030000, 0.020000, 0.000000},
	{4, -1, 5, 0, 0.000030, 0.000000, 0.000000, 0.000000, 0.000000, 0.000000},
	{4, 0, -7, 0, -0.000070, 0.000000, 0.000000, 0.000000, 0.000000, 0.000000},
	{4, 0, -6, -2, 0.000010, 0.000000, 0.000000, 0.000000, 0.000000, 0.000000},
	{4, 0, -6, 0, -0.000620, -0.030000, 0.000000, -0.070000, 0.000000, 0.000000},
	{4, 0, -5, -2, 0.000100, 0.000000, 0.000000, 0.000000, 0.000000, 0.000000},
	{4, 0, -5, 0, -0.004310, -0.180000, 0.000000, -0.390000, 0.000000, 0.000000},
	{4, 0, -4, -2, 0.000420, 0.020000, 0.020000, 0.030000, 0.000000, 0.000000},
	{4, 0, -4, 0, -0.000700, 0.030000, 0.000000, -0.050000, 0.000000, 0.000000},
	{4, 0, -4, 2, -0.000020, 0.000000, 0.000000, 0.000000, 0.000000, 0.000000},
	{4, 0, -3, -4, 0.000020, 0.000000, 0.000000, 0.000000, 0.000000, 0.000000},
	{4, 0, -3, -2, 0.000230, 0.020000, 0.010000, 0.010000, 0.000000, 0.000000},
	{4, 0, -3, 0, 1.186820, 52.890000, -0.500000, 64.880000, 0.220000, 0.250000},
	{4, 0, -3, 2, -0.009340, -0.290000, -0.420000, -0.510000, 0.000000, 0.000000},
	{4, 0, -3, 4, 0.000070, 0.000000, 0.000000, 0.000000, 0.000000, 0.000000},
	{4, 0, -2, -4, 0.000130, 0.000000, 0.010000, 0.000000, 0.000000, 0.000000},
	{4, 0, -2, -2, 0.006620, 0.090000, 0.290000, 0.240000, 0.000000, 0.000000},
	{4, 0, -2, 0, 30.772470, 1164.740000, -12.420000, 1123.350000, -4.250000, 1.180000},
	{4, 0, -2, 2, -0.169770, -6.360000, -7.540000, -6.260000, 0.030000, 0.000000},
	{4, 0, -2, 4, 0.000610, 0.020000, 0.050000, 0.020000, 0.000000, 0.000000},
	{4, 0, -1, -4, 0.000170, 0.010000, 0.010000, 0.000000, 0.000000, 0.000000},
	{4, 0, -1, -2, 0.300860, 5.060000, 13.370000, 5.390000, -0.190000, 0.150000},
	{4, 0, -1, 0, 38.429740, 1853.280000, -37.860000, 849.770000, -9.840000, 0.080000},
	{4, 0, -1, 2, -0.201340, -9.450000, -8.850000, -5.160000, 0.050000, 0.000000},
	{4, 0, -1, 4, 0.000720, 0.030000, 0.060000, 0.020000, 0.000000, 0.000000},
	{4, 0, 0, -4, -0.000030, 0.000000, 0.000000, 0.000000, 0.000000, 0.000000},
	{4, 0, 0, -2, -0.023910, 4.230000, -1.470000, -2.510000, -0.040000, 0.160000},
	{4, 0, 0, 0, 13.899030, 782.370000, -19.880000, 215.740000, -5.220000, 1.370000},
	{4, 0, 0, 2, -0.085000, -4.560000, -3.710000, -1.970000, 0.030000, 0.000000},
	{4, 0, 0, 4, 0.000350, 0.020000, 0.030000, 0.000000, 0.000000, 0.000000},
	{4, 0, 1, -4, -0.000610, 0.000000, -0.050000, -0.010000, 0.000000, 0.000000},
	{4, 0, 1, -2, -0.066010, -2.120000, -2.980000, -1.620000, 0.030000, 0.020000},
	{4, 0, 1, 0, 1.977720, 113.340000, -3.310000, 59.210000, -0.940000, 0.180000},
	{4, 0, 1, 2, -0.017810, -0.990000, -0.770000, -0.630000, 0.000000, 0.000000},
	{4, 0, 1, 4, 0.000090, 0.000000, 0.000000, 0.000000, 0.000000, 0.000000},
	{4, 0, 2, -4, 0.000010, 0.000000, 0.000000, 0.000000, 0.000000, 0.000000},
	{4, 0, 2, -2, -0.009800, -0.350000, -0.440000, -0.410000, 0.000000, 0.000000},
	{4, 0, 2, 0, 0.218530, 12.570000, -0.410000, 10.190000, -0.130000, 0.020000},
	{4, 0, 2, 2, -0.002740, -0.150000, -0.120000, -0.140000, 0.000000, 0.000000},
	{4, 0, 2, 4, 0.000020, 0.000000, 0.000000, 0.000000, 0.000000, 0.000000},
	{4, 0, 3, -2, -0.001090, -0.040000, -0.050000, -0.070000, 0.000000, 0.000000},
	{4, 0, 3, 0, 0.021490, 1.240000, -0.040000, 1.380000, -0.020000, 0.000000},
	{4, 0, 3, 2, -0.000360, -0.020000, -0.020000, -0.020000, 0.000000, 0.000000},
	{4, 0, 4, -2, -0.000110, 0.000000, 0.000000, 0.000000, 0.000000, 0.000000},
	{4, 0, 4, 0, 0.001980, 0.110000, 0.000000, 0.160000, 0.000000, 0.000000},
	{4, 0, 4, 2, -0.000040, 0.000000, 0.000000, 0.000000, 0.000000, 0.000000},
	{4, 0, 5, 0, 0.000170, 0.010000, 0.000000, 0.020000, 0.000000, 0.000000},
	{4, 0, 6, 0, 0.000010, 0.000000, 0.000000, 0.000000, 0.000000, 0.000000},
	{4, 1, -6, 0, -0.000010, 0.000000, 0.000000, 0.000000, 0.000000, 0.000000},
	{4, 1, -5, 0, -0.000040, 0.000000, 0.000000, 0.000000, 0.000000, 0.000000},
	{4, 1, -4, 0, 0.000640, 0.060000, 0.000000, 0.050000, 0.040000, 0.000000},
	{4, 1, -3, -2, -0.000040, 0.000000, 0.000000, 0.000000, 0.000000, 0.000000},
	{4, 1, -3, 0, 0.026820, 3.500000, -0.050000, 1.450000, 1.600000, 0.020000},
	{4, 1, -3, 2, -0.000030, -0.010000, 0.000000, 0.000000, 0.000000, 0.000000},
	{4, 1, -2, -2, -0.000390, -0.020000, -0.020000, -0.010000, -0.020000, 0.000000},
	{4, 1, -2, 0, -0.357590, 7.750000, -0.180000, -13.130000, -21.490000, -0.040000},
	{4, 1, -2, 2, 0.002200, -0.030000, 0.100000, 0.080000, 0.130000, 0.000000},
	{4, 1, -1, -2, -0.018750, -0.680000, -0.830000, -0.350000, -1.120000, 0.000000},
	{4, 1, -1, 0, -0.635230, -17.620000, 0.740000, -14.320000, -38.110000, -0.210000},
	{4, 1, -1, 2, 0.003530, 0.090000, 0.150000, 0.090000, 0.210000, 0.000000},
	{4, 1, -1, 4, -0.000010, 0.000000, 0.000000, 0.000000, 0.000000, 0.000000},
	{4, 1, 0, -2, 0.000510, -0.280000, 0.040000, 0.020000, 0.030000, -0.010000},
	{4, 1, 0, 0, -0.289110, -15.100000, 0.590000, -4.730000, -17.300000, -0.060000},
	{4, 1, 0, 2, 0.001860, 0.090000, 0.080000, 0.050000, 0.110000, 0.000000},
	{4, 1, 1, -4, 0.000040, 0.000000, 0.000000, 0.000000, 0.000000, 0.000000},
	{4, 1, 1, -2, 0.001830, 0.030000, 0.080000, 0.040000, 0.110000, 0.000000},
	{4, 1, 1, 0, -0.050700, -2.990000, 0.120000, -1.550000, -3.030000, -0.010000},
	{4, 1, 1, 2, 0.000480, 0.030000, 0.020000, 0.020000, 0.030000, 0.000000},
	{4, 1, 2, -2, 0.000320, 0.010000, 0.010000, 0.010000, 0.020000, 0.000000},
	{4, 1, 2, 0, -0.006680, -0.420000, 0.020000, -0.320000, -0.400000, 0.000000},
	{4, 1, 2, 2, 0.000090, 0.000000, 0.000000, 0.000000, 0.000000, 0.000000},
	{4, 1, 3, -2, 0.000040, 0.000000, 0.000000, 0.000000, 0.000000, 0.000000},
	{4, 1, 3, 0, -0.000770, -0.050000, 0.000000, -0.050000, -0.050000, 0.000000},
	{4, 1, 3, 2, 0.000010, 0.000000, 0.000000, 0.000000, 0.000000, 0.000000},
	{4, 1, 4, 0, -0.000080, 0.000000, 0.000000, 0.000000, 0.000000, 0.000000},
	{4, 2, -4, 0, -0.000050, 0.000000, 0.000000, 0.000000, 0.000000, 0.000000},
	{4, 2, -3, 0, -0.003690, -0.240000, 0.000000, -0.200000, -0.440000, 0.000000},
	{4, 2, -3, 2, 0.000020, 0.000000, 0.000000, 0.000000, 0.000000, 0.000000},
	{4, 2, -2, -2, 0.000080, 0.000000, 0.000000, 0.000000, 0.000000, 0.000000},
	{4, 2, -2, 0, -0.035140, -2.040000, 0.020000, -1.290000, -4.210000, 0.000000},
	{4, 2, -2, 2, 0.000190, 0.010000, 0.000000, 0.000000, 0.020000, 0.000000},
	{4, 2, -1, -2, 0.000900, 0.060000, 0.040000, 0.020000, 0.110000, 0.000000},
	{4, 2, -1, 0, -0.021710, -1.510000, 0.030000, -0.570000, -2.600000, 0.010000},
	{4, 2, -1, 2, 0.000120, 0.000000, 0.000000, 0.000000, 0.010000, 0.000000},
	{4, 2, 0, -2, 0.000010, 0.000000, 0.000000, 0.000000, 0.000000, 0.000000},
	{4, 2, 0, 0, -0.002080, -0.160000, 0.000000, -0.120000, -0.250000, 0.000000},
	{4, 2, 0, 2, 0.000020, 0.000000, 0.000000, 0.000000, 0.000000, 0.000000},
	{4, 2, 1, -2, -0.000020, 0.000000, 0.000000, 0.000000, 0.000000, 0.000000},
	{4, 2, 1, 0, -0.000080, 0.000000, 0.000000, -0.010000, -0.010000, 0.000000},
	{4, 2, 2, 0, 0.000010, 0.000000, 0.000000, 0.000000, 0.000000, 0.000000},
	{4, 3, -2, 0, 0.000200, 0.000000, 0.000000, 0.000000, 0.040000, 0.000000},
	{4, 3, -1, 0, 0.000230, 0.010000, 0.000000, 0.000000, 0.040000, 0.000000},
	{4, 3, 0, 0, 0.000050, 0.000000, 0.000000, 0.000000, 0.000000, 0.000000},
	{4, 4, -2, -2, 0.000000, -0.020000, 0.000000, 0.000000, 0.040000, -0.060000},
	{5, -3, -2, 0, -0.000030, 0.000000, 0.000000, 0.000000, 0.000000, -0.010000},
	{5, -3, 0, 0, 0.000010, 0.000000, 0.000000, 0.000000, 0.000000, 0.000000},
	{5, -2, -3, 0, -0.000130, 0.000000, 0.000000, 0.000000, -0.020000, -0.050000},
	{5, -2, -2, 0, -0.000520, -0.030000, 0.000000, -0.020000, -0.060000, -0.200000},
	{5, -2, -1, -2, -0.000030, 0.000000, 0.000000, 0.000000, 0.000000, -0.010000},
	{5, -2, -1, 0, -0.000110, -0.020000, 0.000000, 0.000000, -0.010000, -0.040000},
	{5, -2, 0, -2, -0.000020, 0.000000, 0.000000, 0.000000, 0.000000, 0.000000},
	{5, -2, 0, 0, 0.000120, 0.000000, 0.000000, 0.000000, 0.010000, 0.050000},
	{5, -2, 1, 0, 0.000020, 0.000000, 0.000000, 0.000000, 0.000000, 0.000000},
	{5, -1, -4, 0, -0.000070, 0.000000, 0.000000, 0.000000, 0.000000, -0.020000},
	{5, -1, -3, 0, -0.001890, -0.080000, 0.000000, -0.100000, -0.110000, -0.730000},
	{5, -1, -3, 2, 0.000010, 0.000000, 0.000000, 0.000000, 0.000000, 0.000000},
	{5, -1, -2, -2, -0.000030, 0.000000, 0.000000, 0.000000, 0.000000, -0.010000},
	{5, -1, -2, 0, -0.006930, -0.400000, 0.000000, -0.260000, -0.410000, -2.700000},
	{5, -1, -2, 2, 0.000040, 0.000000, 0.000000, 0.000000, 0.000000, 0.020000},
	{5, -1, -1, -2, -0.000400, -0.020000, -0.020000, 0.000000, -0.020000, -0.160000},
	{5, -1, -1, 0, -0.001540, -0.210000, 0.010000, -0.080000, -0.090000, -0.600000},
	{5, -1, -1, 2, 0.000030, 0.000000, 0.000000, 0.000000, 0.000000, 0.010000},
	{5, -1, 0, -2, -0.000210, 0.000000, 0.000000, 0.000000, -0.010000, -0.080000},
	{5, -1, 0, 0, 0.001020, 0.010000, 0.000000, -0.020000, 0.060000, 0.400000},
	{5, -1, 1, -2, -0.000030, 0.000000, 0.000000, 0.000000, 0.000000, -0.010000},
	{5, -1, 1, 0, 0.000140, 0.000000, 0.000000, 0.000000, 0.000000, 0.050000},
	{5, 0, -4, 0, -0.000590, -0.030000, 0.000000, -0.040000, 0.000000, -0.230000},
	{5, 0, -3, 0, -0.016860, -0.720000, 0.000000, -0.920000, 0.000000, -6.560000},
	{5, 0, -3, 2, 0.000100, 0.000000, 0.000000, 0.000000, 0.000000, 0.040000},
	{5, 0, -2, -2, -0.000310, 0.000000, -0.010000, -0.010000, 0.000000, -0.120000},
	{5, 0, -2, 0, -0.057250, -3.180000, 0.070000, -2.180000, 0.050000, -22.260000},
	{5, 0, -2, 2, 0.000390, 0.020000, 0.020000, 0.020000, 0.000000, 0.150000},
	{5, 0, -1, -2, -0.003350, -0.110000, -0.150000, -0.060000, 0.000000, -1.300000},
	{5, 0, -1, 0, -0.013500, -1.570000, 0.090000, -0.640000, 0.060000, -5.250000},
	{5, 0, -1, 2, 0.000240, 0.020000, 0.010000, 0.000000, 0.000000, 0.090000},
	{5, 0, 0, -4, -0.000020, 0.000000, 0.000000, 0.000000, 0.000000, 0.000000},
	{5, 0, 0, -2, -0.001370, -0.060000, -0.060000, 0.000000, 0.000000, -0.530000},
	{5, 0, 0, 0, 0.004390, -0.050000, 0.030000, -0.180000, 0.030000, 1.710000},
	{5, 0, 0, 2, 0.000060, 0.000000, 0.000000, 0.000000, 0.000000, 0.020000},
	{5, 0, 1, -2, -0.000190, 0.000000, 0.000000, 0.000000, 0.000000, -0.070000},
	{5, 0, 1, 0, 0.000500, -0.030000, 0.000000, -0.020000, 0.000000, 0.200000},
	{5, 0, 1, 2, 0.000010, 0.000000, 0.000000, 0.000000, 0.000000, 0.000000},
	{5, 0, 2, -2, -0.000020, 0.000000, 0.000000, 0.000000, 0.000000, 0.000000},
	{5, 0, 2, 0, 0.000010, 0.000000, 0.000000, 0.000000, 0.000000, 0.000000},
	{5, 1, -4, 0, -0.000060, 0.000000, 0.000000, 0.000000, 0.000000, -0.020000},
	{5, 1, -3, 0, -0.000460, -0.050000, 0.000000, -0.020000, -0.030000, -0.180000},
	{5, 1, -2, -2, 0.000010, 0.000000, 0.000000, 0.000000, 0.000000, 0.000000},
	{5, 1, -2, 0, 0.003920, 0.120000, 0.000000, 0.150000, 0.230000, 1.520000},
	{5, 1, -2, 2, -0.000040, 0.000000, 0.000000, 0.000000, 0.000000, -0.010000},
	{5, 1, -1, -2, 0.000160, 0.000000, 0.000000, 0.000000, 0.000000, 0.060000},
	{5, 1, -1, 0, 0.004750, 0.240000, -0.010000, 0.120000, 0.280000, 1.850000},
	{5, 1, -1, 2, -0.000050, 0.000000, 0.000000, 0.000000, 0.000000, -0.020000},
	{5, 1, 0, -2, 0.000050, 0.000000, 0.000000, 0.000000, 0.000000, 0.020000},
	{5, 1, 0, 0, 0.001810, 0.110000, 0.000000, 0.050000, 0.110000, 0.700000},
	{5, 1, 0, 2, -0.000020, 0.000000, 0.000000, 0.000000, 0.000000, 0.000000},
	{5, 1, 1, 0, 0.000350, 0.020000, 0.000000, 0.010000, 0.020000, 0.140000},
	{5, 1, 2, 0, 0.000050, 0.000000, 0.000000, 0.000000, 0.000000, 0.020000},
	{5, 2, -3, 0, 0.000010, 0.000000, 0.000000, 0.000000, 0.000000, 0.000000},
	{5, 2, -2, 0, -0.000010, 0.000000, 0.000000, 0.000000, 0.000000, 0.000000},
	{5, 2, -1, 0, -0.000080, 0.000000, 0.000000, 0.000000, -0.010000, -0.030000},
	{5, 2, 0, 0, -0.000040, 0.000000, 0.000000, 0.000000, 0.000000, -0.020000},
	{5, 2, 1, 0, -0.000010, 0.000000, 0.000000, 0.000000, 0.000000, 0.000000},
	{5, 3, -2, -2, 0.000000, 0.000000, 0.000000, 0.000000, 0.000000, 0.020000},
	{6, -4, -3, 0, 0.000010, 0.000000, 0.000000, 0.000000, 0.000000, 0.000000},
	{6, -4, -2, 0, 0.000040, 0.000000, 0.000000, 0.000000, 0.000000, 0.000000},
	{6, -4, -1, 0, 0.000040, 0.000000, 0.000000, 0.000000, 0.000000, 0.000000},
	{6, -4, 0, 0, 0.000020, 0.000000, 0.000000, 0.000000, 0.000000, 0.000000},
	{6, -3, -3, 0, 0.000200, 0.010000, 0.000000, 0.010000, 0.030000, 0.000000},
	{6, -3, -2, 0, 0.000590, 0.040000, 0.000000, 0.020000, 0.110000, 0.000000},
	{6, -3, -1, 0, 0.000590, 0.050000, 0.000000, 0.020000, 0.110000, 0.000000},
	{6, -3, 0, 0, 0.000240, 0.020000, 0.000000, 0.000000, 0.040000, 0.000000},
	{6, -3, 1, 0, 0.000050, 0.000000, 0.000000, 0.000000, 0.000000, 0.000000},
	{6, -2, -4, 0, 0.000140, 0.000000, 0.000000, 0.000000, 0.020000, 0.000000},
	{6, -2, -3, 0, 0.003120, 0.190000, 0.000000, 0.170000, 0.370000, 0.000000},
	{6, -2, -3, 2, -0.000030, 0.000000, 0.000000, 0.000000, 0.000000, 0.000000},
	{6, -2, -2, -2, 0.000030, 0.000000, 0.000000, 0.000000, 0.000000, 0.000000},
	{6, -2, -2, 0, 0.008360, 0.590000, 0.000000, 0.330000, 1.000000, 0.000000},
	{6, -2, -2, 2, -0.000070, 0.000000, 0.000000, 0.000000, 0.000000, 0.000000},
	{6, -2, -1, -2, 0.000030, 0.000000, 0.000000, 0.000000, 0.000000, 0.000000},
	{6, -2, -1, 0, 0.007440, 0.610000, -0.010000, 0.210000, 0.890000, 0.000000},
	{6, -2, -1, 2, -0.000070, 0.000000, 0.000000, 0.000000, 0.000000, 0.000000},
	{6, -2, 0, -2, -0.000020, 0.000000, 0.000000, 0.000000, 0.000000, 0.000000},
	{6, -2, 0, 0, 0.002850, 0.260000, 0.000000, 0.070000, 0.340000, 0.000000},
	{6, -2, 0, 2, -0.000030, 0.000000, 0.000000, 0.000000, 0.000000, 0.000000},
	{6, -2, 1, -2, -0.000020, 0.000000, 0.000000, 0.000000, 0.000000, 0.000000},
	{6, -2, 1, 0, 0.000560, 0.050000, 0.000000, 0.020000, 0.070000, 0.000000},
	{6, -2, 2, 0, 0.000080, 0.000000, 0.000000, 0.000000, 0.000000, 0.000000},
	{6, -2, 3, 0, 0.000010, 0.000000, 0.000000, 0.000000, 0.000000, 0.000000},
	{6, -1, -5, 0, 0.000020, 0.000000, 0.000000, 0.000000, 0.000000, 0.000000},
	{6, -1, -4, 0, 0.001760, 0.110000, 0.000000, 0.130000, 0.110000, 0.000000},
	{6, -1, -4, 2, -0.000020, 0.000000, 0.000000, 0.000000, 0.000000, 0.000000},
	{6, -1, -3, -2, 0.000020, 0.000000, 0.000000, 0.000000, 0.000000, 0.000000},
	{6, -1, -3, 0, 0.039000, 2.280000, -0.020000, 2.140000, 2.330000, 0.000000},
	{6, -1, -3, 2, -0.000390, -0.020000, -0.020000, -0.020000, -0.020000, 0.000000},
	{6, -1, -2, -2, 0.000440, 0.010000, 0.020000, 0.020000, 0.030000, 0.000000},
	{6, -1, -2, 0, 0.090330, 6.230000, -0.110000, 3.590000, 5.380000, 0.000000},
	{6, -1, -2, 2, -0.000800, -0.050000, -0.040000, -0.030000, -0.050000, 0.000000},
	{6, -1, -1, -2, 0.000180, 0.020000, 0.000000, 0.000000, 0.010000, 0.000000},
	{6, -1, -1, 0, 0.071420, 5.640000, -0.120000, 2.050000, 4.250000, 0.000000},
	{6, -1, -1, 2, -0.000640, -0.050000, -0.030000, -0.020000, -0.040000, 0.000000},
	{6, -1, 0, -2, -0.000250, 0.000000, -0.010000, -0.010000, -0.010000, 0.000000},
	{6, -1, 0, 0, 0.025100, 2.160000, -0.050000, 0.660000, 1.490000, 0.000000},
	{6, -1, 0, 2, -0.000260, -0.020000, -0.010000, 0.000000, -0.020000, 0.000000},
	{6, -1, 1, -2, -0.000160, 0.000000, 0.000000, 0.000000, 0.000000, 0.000000},
	{6, -1, 1, 0, 0.004770, 0.420000, -0.010000, 0.180000, 0.280000, 0.000000},
	{6, -1, 1, 2, -0.000060, 0.000000, 0.000000, 0.000000, 0.000000, 0.000000},
	{6, -1, 2, -2, -0.000030, 0.000000, 0.000000, 0.000000, 0.000000, 0.000000},
	{6, -1, 2, 0, 0.000690, 0.060000, 0.000000, 0.040000, 0.040000, 0.000000},
	{6, -1, 2, 2, -0.000010, 0.000000, 0.000000, 0.000000, 0.000000, 0.000000},
	{6, -1, 3, 0, 0.000090, 0.000000, 0.000000, 0.000000, 0.000000, 0.000000},
	{6, 0, -5, 0, 0.000200, 0.010000, 0.000000, 0.020000, 0.000000, 0.000000},
	{6, 0, -4, 0, 0.013760, 0.880000, 0.000000, 1.000000, 0.000000, 0.000000},
	{6, 0, -4, 2, -0.000170, 0.000000, 0.000000, -0.010000, 0.000000, 0.000000},
	{6, 0, -3, -2, 0.000180, 0.000000, 0.000000, 0.000000, 0.000000, 0.000000},
	{6, 0, -3, 0, 0.292550, 16.720000, -0.190000, 16.040000, -0.080000, 0.030000},
	{6, 0, -3, 2, -0.002870, -0.160000, -0.130000, -0.160000, 0.000000, 0.000000},
	{6, 0, -3, 4, 0.000020, 0.000000, 0.000000, 0.000000, 0.000000, 0.000000},
	{6, 0, -2, -2, 0.003640, 0.130000, 0.160000, 0.130000, 0.000000, 0.000000},
	{6, 0, -2, 0, 0.571560, 38.340000, -0.750000, 22.970000, -0.260000, 0.020000},
	{6, 0, -2, 2, -0.005090, -0.340000, -0.220000, -0.220000, 0.000000, 0.000000},
	{6, 0, -2, 4, 0.000030, 0.000000, 0.000000, 0.000000, 0.000000, 0.000000},
	{6, 0, -1, -2, 0.000070, 0.080000, 0.000000, -0.030000, 0.000000, 0.000000},
	{6, 0, -1, 0, 0.394510, 30.100000, -0.740000, 11.790000, -0.250000, 0.030000},
	{6, 0, -1, 2, -0.003590, -0.270000, -0.160000, -0.130000, 0.000000, 0.000000},
	{6, 0, -1, 4, 0.000020, 0.000000, 0.000000, 0.000000, 0.000000, 0.000000},
	{6, 0, 0, -4, -0.000080, 0.000000, 0.000000, 0.000000, 0.000000, 0.000000},
	{6, 0, 0, -2, -0.002140, -0.070000, -0.100000, -0.070000, 0.000000, 0.000000},
	{6, 0, 0, 0, 0.126160, 10.430000, -0.290000, 3.570000, -0.100000, 0.020000},
	{6, 0, 0, 2, -0.001320, -0.110000, -0.060000, -0.050000, 0.000000, 0.000000},
	{6, 0, 1, -4, -0.000010, 0.000000, 0.000000, 0.000000, 0.000000, 0.000000},
	{6, 0, 1, -2, -0.000940, -0.050000, -0.040000, -0.030000, 0.000000, 0.000000},
	{6, 0, 1, 0, 0.022850, 1.930000, -0.060000, 0.910000, -0.020000, 0.000000},
	{6, 0, 1, 2, -0.000310, -0.020000, -0.010000, -0.010000, 0.000000, 0.000000},
	{6, 0, 2, -2, -0.000180, -0.010000, 0.000000, 0.000000, 0.000000, 0.000000},
	{6, 0, 2, 0, 0.003180, 0.270000, 0.000000, 0.180000, 0.000000, 0.000000},
	{6, 0, 2, 2, -0.000050, 0.000000, 0.000000, 0.000000, 0.000000, 0.000000},
	{6, 0, 3, -2, -0.000030, 0.000000, 0.000000, 0.000000, 0.000000, 0.000000},
	{6, 0, 3, 0, 0.000380, 0.030000, 0.000000, 0.030000, 0.000000, 0.000000},
	{6, 0, 4, 0, 0.000040, 0.000000, 0.000000, 0.000000, 0.000000, 0.000000},
	{6, 1, -5, 0, 0.000010, 0.000000, 0.000000, 0.000000, 0.000000, 0.000000},
	{6, 1, -4, 0, 0.000280, 0.050000, 0.000000, 0.020000, 0.020000, 0.000000},
	{6, 1, -3, 0, -0.004780, 0.050000, 0.000000, -0.260000, -0.290000, 0.000000},
	{6, 1, -3, 2, 0.000050, 0.000000, 0.000000, 0.000000, 0.000000, 0.000000},
	{6, 1, -2, -2, -0.000260, -0.010000, -0.010000, 0.000000, -0.020000, 0.000000},
	{6, 1, -2, 0, -0.012820, -0.470000, 0.020000, -0.520000, -0.770000, 0.000000},
	{6, 1, -2, 2, 0.000120, 0.000000, 0.000000, 0.000000, 0.000000, 0.000000},
	{6, 1, -1, -2, -0.000070, -0.010000, 0.000000, 0.000000, 0.000000, 0.000000},
	{6, 1, -1, 0, -0.010640, -0.660000, 0.020000, -0.320000, -0.640000, 0.000000},
	{6, 1, -1, 2, 0.000100, 0.000000, 0.000000, 0.000000, 0.000000, 0.000000},
	{6, 1, 0, -2, 0.000080, 0.000000, 0.000000, 0.000000, 0.000000, 0.000000},
	{6, 1, 0, 0, -0.003960, -0.310000, 0.010000, -0.120000, -0.240000, 0.000000},
	{6, 1, 0, 2, 0.000040, 0.000000, 0.000000, 0.000000, 0.000000, 0.000000},
	{6, 1, 1, -2, 0.000040, 0.000000, 0.000000, 0.000000, 0.000000, 0.000000},
	{6, 1, 1, 0, -0.000830, -0.070000, 0.000000, -0.030000, -0.050000, 0.000000},
	{6, 1, 1, 2, 0.000010, 0.000000, 0.000000, 0.000000, 0.000000, 0.000000},
	{6, 1, 2, 0, -0.000130, -0.010000, 0.000000, 0.000000, 0.000000, 0.000000},
	{6, 1, 3, 0, -0.000020, 0.000000, 0.000000, 0.000000, 0.000000, 0.000000},
	{6, 2, -4, 0, -0.000060, 0.000000, 0.000000, 0.000000, 0.000000, 0.000000},
	{6, 2, -3, 0, -0.000510, -0.040000, 0.000000, -0.030000, -0.060000, 0.000000},
	{6, 2, -2, -2, 0.000010, 0.000000, 0.000000, 0.000000, 0.000000, 0.000000},
	{6, 2, -2, 0, -0.000610, -0.060000, 0.000000, -0.030000, -0.070000, 0.000000},
	{6, 2, -1, -2, 0.000010, 0.000000, 0.000000, 0.000000, 0.000000, 0.000000},
	{6, 2, -1, 0, -0.000210, -0.020000, 0.000000, 0.000000, -0.030000, 0.000000},
	{6, 2, 0, 0, -0.000020, 0.000000, 0.000000, 0.000000, 0.000000, 0.000000},
	{6, 3, -2, 0, 0.000010, 0.000000, 0.000000, 0.000000, 0.000000, 0.000000},
	{7, -2, -3, 0, -0.000020, 0.000000, 0.000000, 0.000000, 0.000000, 0.000000},
	{7, -2, -2, 0, -0.000010, 0.000000, 0.000000, 0.000000, 0.000000, 0.000000},
	{7, -1, -4, 0, -0.000040, 0.000000, 0.000000, 0.000000, 0.000000, -0.010000},
	{7, -1, -3, 0, -0.000160, -0.010000, 0.000000, 0.000000, -0.010000, -0.060000},
	{7, -1, -2, 0, -0.000120, -0.010000, 0.000000, 0.000000, 0.000000, -0.050000},
	{7, -1, 0, 0, 0.000020, 0.000000, 0.000000, 0.000000, 0.000000, 0.000000},
	{7, 0, -5, 0, -0.000010, 0.000000, 0.000000, 0.000000, 0.000000, 0.000000},
	{7, 0, -4, 0, -0.000250, -0.020000, 0.000000, -0.020000, 0.000000, -0.100000},
	{7, 0, -3, 0, -0.000980, -0.070000, 0.000000, -0.060000, 0.000000, -0.380000},
	{7, 0, -3, 2, 0.000010, 0.000000, 0.000000, 0.000000, 0.000000, 0.000000},
	{7, 0, -2, -2, -0.000050, 0.000000, 0.000000, 0.000000, 0.000000, -0.020000},
	{7, 0, -2, 0, -0.000680, -0.070000, 0.000000, -0.030000, 0.000000, -0.260000},
	{7, 0, -2, 2, 0.000010, 0.000000, 0.000000, 0.000000, 0.000000, 0.000000},
	{7, 0, -1, -2, -0.000040, 0.000000, 0.000000, 0.000000, 0.000000, -0.020000},
	{7, 0, -1, 0, -0.000050, -0.020000, 0.000000, 0.000000, 0.000000, -0.020000},
	{7, 0, 0, -2, -0.000010, 0.000000, 0.000000, 0.000000, 0.000000, 0.000000},
	{7, 0, 0, 0, 0.000050, 0.000000, 0.000000, 0.000000, 0.000000, 0.020000},
	{7, 1, -3, 0, 0.000060, 0.000000, 0.000000, 0.000000, 0.000000, 0.020000},
	{7, 1, -2, 0, 0.000110, 0.000000, 0.000000, 0.000000, 0.000000, 0.040000},
	{7, 1, -1, 0, 0.000070, 0.000000, 0.000000, 0.000000, 0.000000, 0.030000},
	{7, 1, 0, 0, 0.000030, 0.000000, 0.000000, 0.000000, 0.000000, 0.010000},
	{8, -3, -3, 0, 0.000020, 0.000000, 0.000000, 0.000000, 0.000000, 0.000000},
	{8, -3, -2, 0, 0.000020, 0.000000, 0.000000, 0.000000, 0.000000, 0.000000},
	{8, -3, -1, 0, 0.000020, 0.000000, 0.000000, 0.000000, 0.000000, 0.000000},
	{8, -2, -4, 0, 0.000060, 0.000000, 0.000000, 0.000000, 0.000000, 0.000000},
	{8, -2, -3, 0, 0.000190, 0.020000, 0.000000, 0.010000, 0.020000, 0.000000},
	{8, -2, -2, 0, 0.000250, 0.030000, 0.000000, 0.010000, 0.030000, 0.000000},
	{8, -2, -1, 0, 0.000150, 0.020000, 0.000000, 0.000000, 0.020000, 0.000000},
	{8, -2, 0, 0, 0.000050, 0.000000, 0.000000, 0.000000, 0.000000, 0.000000},
	{8, -2, 1, 0, 0.000010, 0.000000, 0.000000, 0.000000, 0.000000, 0.000000},
	{8, -1, -5, 0, 0.000030, 0.000000, 0.000000, 0.000000, 0.000000, 0.000000},
	{8, -1, -4, 0, 0.000580, 0.040000, 0.000000, 0.040000, 0.030000, 0.000000},
	{8, -1, -3, 0, 0.001700, 0.150000, 0.000000, 0.100000, 0.100000, 0.000000},
	{8, -1, -3, 2, -0.000020, 0.000000, 0.000000, 0.000000, 0.000000, 0.000000},
	{8, -1, -2, 0, 0.001960, 0.190000, 0.000000, 0.090000, 0.120000, 0.000000},
	{8, -1, -2, 2, -0.000030, 0.000000, 0.000000, 0.000000, 0.000000, 0.000000},
	{8, -1, -1, 0, 0.001120, 0.120000, 0.000000, 0.040000, 0.070000, 0.000000},
	{8, -1, -1, 2, -0.000010, 0.000000, 0.000000, 0.000000, 0.000000, 0.000000},
	{8, -1, 0, 0, 0.000370, 0.040000, 0.000000, 0.020000, 0.020000, 0.000000},
	{8, -1, 1, 0, 0.000080, 0.000000, 0.000000, 0.000000, 0.000000, 0.000000},
	{8, -1, 2, 0, 0.000010, 0.000000, 0.000000, 0.000000, 0.000000, 0.000000},
	{8, 0, -5, 0, 0.000180, 0.010000, 0.000000, 0.020000, 0.000000, 0.000000},
	{8, 0, -4, 0, 0.003240, 0.250000, 0.000000, 0.240000, 0.000000, 0.000000},
	{8, 0, -4, 2, -0.000050, 0.000000, 0.000000, 0.000000, 0.000000, 0.000000},
	{8, 0, -3, -2, 0.000050, 0.000000, 0.000000, 0.000000, 0.000000, 0.000000},
	{8, 0, -3, 0, 0.008400, 0.720000, -0.010000, 0.490000, 0.000000, 0.000000},
	{8, 0, -3, 2, -0.000110, 0.000000, 0.000000, 0.000000, 0.000000, 0.000000},
	{8, 0, -2, -2, 0.000010, 0.000000, 0.000000, 0.000000, 0.000000, 0.000000},
	{8, 0, -2, 0, 0.008660, 0.830000, -0.020000, 0.400000, 0.000000, 0.000000},
	{8, 0, -2, 2, -0.000110, -0.010000, 0.000000, 0.000000, 0.000000, 0.000000},
	{8, 0, -1, -2, -0.000050, 0.000000, 0.000000, 0.000000, 0.000000, 0.000000},
	{8, 0, -1, 0, 0.004550, 0.470000, -0.010000, 0.180000, 0.000000, 0.000000},
	{8, 0, -1, 2, -0.000060, 0.000000, 0.000000, 0.000000, 0.000000, 0.000000},
	{8, 0, 0, -2, -0.000040, 0.000000, 0.000000, 0.000000, 0.000000, 0.000000},
	{8, 0, 0, 0, 0.001390, 0.150000, 0.000000, 0.060000, 0.000000, 0.000000},
	{8, 0, 0, 2, -0.000020, 0.000000, 0.000000, 0.000000, 0.000000, 0.000000},
	{8, 0, 1, -2, -0.000010, 0.000000, 0.000000, 0.000000, 0.000000, 0.000000},
	{8, 0, 1, 0, 0.000290, 0.030000, 0.000000, 0.020000, 0.000000, 0.000000},
	{8, 0, 2, 0, 0.000050, 0.000000, 0.000000, 0.000000, 0.000000, 0.000000},
	{8, 1, -4, 0, -0.000070, 0.000000, 0.000000, 0.000000, 0.000000, 0.000000},
	{8, 1, -3, 0, -0.000240, -0.010000, 0.000000, -0.010000, -0.010000, 0.000000},
	{8, 1, -2, 0, -0.000290, -0.020000, 0.000000, -0.010000, -0.020000, 0.000000},
	{8, 1, -1, 0, -0.000170, -0.020000, 0.000000, 0.000000, -0.010000, 0.000000},
	{8, 1, 0, 0, -0.000060, 0.000000, 0.000000, 0.000000, 0.000000, 0.000000},
	{8, 1, 1, 0, -0.000010, 0.000000, 0.000000, 0.000000, 0.000000, 0.000000},
	{8, 2, -3, 0, -0.000010, 0.000000, 0.000000, 0.000000, 0.000000, 0.000000},
	{9, 0, -4, 0, -0.000020, 0.000000, 0.000000, 0.000000, 0.000000, 0.000000},
	{9, 0, -3, 0, -0.000020, 0.000000, 0.000000, 0.000000, 0.000000, 0.000000},
	{10, -1, -4, 0, 0.000030, 0.000000, 0.000000, 0.000000, 0.000000, 0.000000},
	{10, -1, -3, 0, 0.000050, 0.000000, 0.000000, 0.000000, 0.000000, 0.000000},
	{10, -1, -2, 0, 0.000040, 0.000000, 0.000000, 0.000000, 0.000000, 0.000000},
	{10, -1, -1, 0, 0.000020, 0.000000, 0.000000, 0.000000, 0.000000, 0.000000},
	{10, 0, -5, 0, 0.000040, 0.000000, 0.000000, 0.000000, 0.000000, 0.000000},
	{10, 0, -4, 0, 0.000120, 0.010000, 0.000000, 0.000000, 0.000000, 0.000000},
	{10, 0, -3, 0, 0.000170, 0.020000, 0.000000, 0.010000, 0.000000, 0.000000},
	{10, 0, -2, 0, 0.000130, 0.020000, 0.000000, 0.000000, 0.000000, 0.000000},
	{10, 0, -1, 0, 0.000060, 0.000000, 0.000000, 0.000000, 0.000000, 0.000000},
	{10, 0, 0, 0, 0.000020, 0.000000, 0.000000, 0.000000, 0.000000, 0.000000}
};

static const struct main_problem main_elp2[ELP2_SIZE] =
{
	{0, 0, 0, 1, 18461.400000, 0.000000, 412529.610000, 0.000000, 0.000000, 0.000000},
	{0, 0, 0, 3, -6.296640, 7.680000, -422.650000, -13.210000, 0.020000, -0.020000},
	{0, 0, 0, 5, 0.005920, 0.000000, 0.660000, 0.020000, 0.000000, 0.000000},
	{0, 0, 1, -5, -0.002360, 0.020000, -0.260000, -0.050000, 0.000000, 0.000000},
	{0, 0, 1, -3, 2.798710, -17.130000, 188.680000, 50.780000, -0.110000, 0.040000},
	{0, 0, 1, -1, 999.700790, -563.820000, 22508.540000, 18298.820000, -0.920000, -0.210000},
	{0, 0, 1, 1, 1010.174300, -93.160000, 22571.830000, 18386.360000, -0.760000, -0.170000},
	{0, 0, 1, 3, -1.019410, 0.950000, -68.420000, -19.880000, 0.000000, 0.000000},
	{0, 0, 1, 5, 0.001560, 0.000000, 0.170000, 0.030000, 0.000000, 0.000000},
	{0, 0, 2, -5, -0.000440, 0.000000, -0.050000, -0.020000, 0.000000, 0.000000},
	{0, 0, 2, -3, -0.130350, -0.400000, -8.780000, -4.770000, 0.000000, 0.000000},
	{0, 0, 2, -1, 31.759850, -167.640000, 723.950000, 1159.970000, -1.090000, 0.220000},
	{0, 0, 2, 1, 61.912290, -23.730000, 1382.400000, 2253.180000, -0.620000, -0.060000},
	{0, 0, 2, 3, -0.117870, 0.110000, -7.910000, -4.410000, 0.000000, 0.000000},
	{0, 0, 2, 5, 0.000260, 0.000000, 0.030000, 0.010000, 0.000000, 0.000000},
	{0, 0, 3, -5, 0.000030, 0.000000, 0.000000, 0.000000, 0.000000, 0.000000},
	{0, 0, 3, -3, -0.001460, 0.040000, -0.100000, -0.080000, 0.000000, 0.000000},
	{0, 0, 3, -1, 1.581310, -10.250000, 36.060000, 86.530000, -0.080000, 0.000000},
	{0, 0, 3, 1, 3.984070, -3.300000, 88.860000, 217.430000, -0.110000, -0.010000},
	{0, 0, 3, 3, -0.011810, 0.010000, -0.790000, -0.650000, 0.000000, 0.000000},
	{0, 0, 3, 5, 0.000040, 0.000000, 0.000000, 0.000000, 0.000000, 0.000000},
	{0, 0, 4, -3, -0.000060, 0.000000, 0.000000, 0.000000, 0.000000, 0.000000},
	{0, 0, 4, -1, 0.091570, -0.700000, 2.090000, 6.680000, 0.000000, 0.000000},
	{0, 0, 4, 1, 0.263250, -0.370000, 5.860000, 19.150000, -0.010000, 0.000000},
	{0, 0, 4, 3, -0.001090, 0.000000, -0.070000, -0.080000, 0.000000, 0.000000},
	{0, 0, 5, -1, 0.005660, -0.050000, 0.130000, 0.510000, 0.000000, 0.000000},
	{0, 0, 5, 1, 0.017680, -0.040000, 0.390000, 1.610000, 0.000000, 0.000000},
	{0, 0, 5, 3, -0.000100, 0.000000, 0.000000, 0.000000, 0.000000, 0.000000},
	{0, 0, 6, -1, 0.000360, 0.000000, 0.000000, 0.040000, 0.000000, 0.000000},
	{0, 0, 6, 1, 0.001200, 0.000000, 0.030000, 0.130000, 0.000000, 0.000000},
	{0, 0, 7, -1, 0.000020, 0.000000, 0.000000, 0.000000, 0.000000, 0.000000},
	{0, 0, 7, 1, 0.000080, 0.000000, 0.000000, 0.010000, 0.000000, 0.000000},
	{0, 1, -6, -1, -0.000040, 0.000000, 0.000000, 0.000000, 0.000000, 0.000000},
	{0, 1, -6, 1, -0.000010, 0.000000, 0.000000, 0.000000, 0.000000, 0.000000},
	{0, 1, -5, -1, -0.000530, -0.010000, -0.010000, -0.050000, -0.030000, 0.000000},
	{0, 1, -5, 1, -0.000140, 0.000000, 0.000000, -0.010000, 0.000000, 0.000000},
	{0, 1, -4, -3, 0.000030, 0.000000, 0.000000, 0.000000, 0.000000, 0.000000},
	{0, 1, -4, -1, -0.006460, -0.140000, -0.140000, -0.470000, -0.390000, 0.000000},
	{0, 1, -4, 1, -0.001860, -0.020000, -0.040000, -0.140000, -0.110000, 0.000000},
	{0, 1, -3, -3, 0.000230, 0.000000, 0.010000, 0.010000, 0.010000, 0.000000},
	{0, 1, -3, -1, -0.074790, -1.690000, -1.630000, -4.080000, -4.480000, 0.000000},
	{0, 1, -3, 1, -0.023650, -0.350000, -0.530000, -1.290000, -1.420000, 0.000000},
	{0, 1, -3, 3, 0.000020, 0.000000, 0.000000, 0.000000, 0.000000, 0.000000},
	{0, 1, -2, -3, 0.001540, 0.030000, 0.100000, 0.060000, 0.090000, 0.000000},
	{0, 1, -2, -1, -0.793220, -18.590000, -17.320000, -28.860000, -47.520000, -0.010000},
	{0, 1, -2, 1, -0.301290, -4.790000, -6.710000, -11.010000, -18.040000, -0.010000},
	{0, 1, -2, 3, 0.001910, 0.060000, 0.130000, 0.070000, 0.120000, 0.000000},
	{0, 1, -1, -5, -0.000010, 0.000000, 0.000000, 0.000000, 0.000000, 0.000000},
	{0, 1, -1, -3, 0.006790, 0.140000, 0.450000, 0.140000, 0.410000, 0.000000},
	{0, 1, -1, -1, -6.731730, -159.360000, -146.940000, -122.890000, -403.360000, -0.030000},
	{0, 1, -1, 1, -5.632600, -148.810000, -123.960000, -102.800000, -337.620000, -0.040000},
	{0, 1, -1, 3, -0.009110, -0.200000, -0.610000, -0.150000, -0.550000, 0.000000},
	{0, 1, 0, -3, 0.000100, -0.170000, 0.000000, 0.060000, 0.000000, 0.000000},
	{0, 1, 0, -1, -4.839830, 70.860000, -100.970000, -8.740000, -289.050000, 0.020000},
	{0, 1, 0, 1, -6.460360, 28.140000, -136.250000, -20.210000, -386.090000, 0.290000},
	{0, 1, 0, 3, 0.011570, 0.060000, 0.770000, 0.040000, 0.690000, 0.000000},
	{0, 1, 0, 5, -0.000020, 0.000000, 0.000000, 0.000000, 0.000000, 0.000000},
	{0, 1, 1, -3, -0.007030, -0.040000, -0.470000, -0.130000, -0.420000, 0.000000},
	{0, 1, 1, -1, -5.076140, -113.160000, -112.230000, -93.120000, -304.280000, 0.000000},
	{0, 1, 1, 1, -5.311510, -99.030000, -115.960000, -99.190000, -318.300000, 0.060000},
	{0, 1, 1, 3, 0.006680, 0.100000, 0.450000, 0.130000, 0.400000, 0.000000},
	{0, 1, 1, 5, -0.000010, 0.000000, 0.000000, 0.000000, 0.000000, 0.000000},
	{0, 1, 2, -3, 0.001410, 0.040000, 0.090000, 0.050000, 0.080000, 0.000000},
	{0, 1, 2, -1, -0.312920, -4.920000, -6.960000, -11.470000, -18.750000, 0.000000},
	{0, 1, 2, 1, -0.638840, -12.560000, -13.950000, -23.510000, -38.290000, 0.010000},
	{0, 1, 2, 3, 0.001350, 0.020000, 0.090000, 0.050000, 0.080000, 0.000000},
	{0, 1, 3, -3, 0.000030, 0.000000, 0.000000, 0.000000, 0.000000, 0.000000},
	{0, 1, 3, -1, -0.024190, -0.360000, -0.540000, -1.330000, -1.450000, 0.000000},
	{0, 1, 3, 1, -0.061760, -1.230000, -1.350000, -3.400000, -3.700000, 0.000000},
	{0, 1, 3, 3, 0.000200, 0.000000, 0.010000, 0.010000, 0.010000, 0.000000},
	{0, 1, 4, -1, -0.001910, -0.030000, -0.040000, -0.140000, -0.110000, 0.000000},
	{0, 1, 4, 1, -0.005480, -0.110000, -0.120000, -0.400000, -0.330000, 0.000000},
	{0, 1, 4, 3, 0.000020, 0.000000, 0.000000, 0.000000, 0.000000, 0.000000},
	{0, 1, 5, -1, -0.000150, 0.000000, 0.000000, -0.010000, 0.000000, 0.000000},
	{0, 1, 5, 1, -0.000460, 0.000000, -0.010000, -0.040000, -0.030000, 0.000000},
	{0, 1, 6, -1, -0.000010, 0.000000, 0.000000, 0.000000, 0.000000, 0.000000},
	{0, 1, 6, 1, -0.000040, 0.000000, 0.000000, 0.000000, 0.000000, 0.000000},
	{0, 2, -5, -1, -0.000010, 0.000000, 0.000000, 0.000000, 0.000000, 0.000000},
	{0, 2, -4, -1, -0.000160, 0.000000, 0.000000, -0.010000, -0.020000, 0.000000},
	{0, 2, -4, 1, -0.000040, 0.000000, 0.000000, 0.000000, 0.000000, 0.000000},
	{0, 2, -3, -1, -0.001690, -0.050000, -0.040000, -0.090000, -0.200000, 0.000000},
	{0, 2, -3, 1, -0.000490, -0.010000, -0.010000, -0.030000, -0.060000, 0.000000},
	{0, 2, -2, -3, 0.000030, 0.000000, 0.000000, 0.000000, 0.000000, 0.000000},
	{0, 2, -2, -1, -0.015710, -0.490000, -0.340000, -0.570000, -1.880000, 0.000000},
	{0, 2, -2, 1, -0.005360, -0.120000, -0.120000, -0.200000, -0.640000, 0.000000},
	{0, 2, -2, 3, 0.000040, 0.000000, 0.000000, 0.000000, 0.000000, 0.000000},
	{0, 2, -1, -3, 0.000100, 0.000000, 0.000000, 0.000000, 0.010000, 0.000000},
	{0, 2, -1, -1, -0.113350, -3.250000, -2.460000, -2.070000, -13.580000, 0.000000},
	{0, 2, -1, 1, -0.095110, -3.170000, -2.080000, -1.730000, -11.390000, 0.000000},
	{0, 2, -1, 3, -0.000090, 0.000000, 0.000000, 0.000000, -0.010000, 0.000000},
	{0, 2, 0, -3, -0.000140, 0.000000, 0.000000, 0.000000, -0.020000, 0.000000},
	{0, 2, 0, -1, -0.018010, 3.130000, -0.330000, -0.140000, -2.140000, 0.000000},
	{0, 2, 0, 1, -0.057290, 2.090000, -1.190000, -0.390000, -6.840000, 0.000000},
	{0, 2, 0, 3, 0.000160, 0.000000, 0.010000, 0.000000, 0.020000, 0.000000},
	{0, 2, 1, -3, -0.000070, 0.000000, 0.000000, 0.000000, 0.000000, 0.000000},
	{0, 2, 1, -1, -0.061870, -1.290000, -1.370000, -1.130000, -7.410000, 0.000000},
	{0, 2, 1, 1, -0.055040, -0.810000, -1.210000, -1.040000, -6.590000, 0.000000},
	{0, 2, 1, 3, 0.000070, 0.000000, 0.000000, 0.000000, 0.000000, 0.000000},
	{0, 2, 2, -3, 0.000010, 0.000000, 0.000000, 0.000000, 0.000000, 0.000000},
	{0, 2, 2, -1, -0.002840, -0.020000, -0.060000, -0.100000, -0.340000, 0.000000},
	{0, 2, 2, 1, -0.005280, -0.060000, -0.120000, -0.190000, -0.630000, 0.000000},
	{0, 2, 2, 3, 0.000010, 0.000000, 0.000000, 0.000000, 0.000000, 0.000000},
	{0, 2, 3, -1, -0.000160, 0.000000, 0.000000, 0.000000, -0.020000, 0.000000},
	{0, 2, 3, 1, -0.000370, 0.000000, 0.000000, -0.020000, -0.040000, 0.000000},
	{0, 2, 4, 1, -0.000020, 0.000000, 0.000000, 0.000000, 0.000000, 0.000000},
	{0, 3, -3, -1, -0.000040, 0.000000, 0.000000, 0.000000, 0.000000, 0.000000},
	{0, 3, -3, 1, -0.000010, 0.000000, 0.000000, 0.000000, 0.000000, 0.000000},
	{0, 3, -2, -1, -0.000330, -0.010000, 0.000000, -0.010000, -0.060000, 0.000000},
	{0, 3, -2, 1, -0.000110, 0.000000, 0.000000, 0.000000, -0.020000, 0.000000},
	{0, 3, -1, -1, -0.002160, -0.070000, -0.050000, -0.040000, -0.390000, 0.000000},
	{0, 3, -1, 1, -0.001900, -0.070000, -0.040000, -0.030000, -0.340000, 0.000000},
	{0, 3, 0, -1, 0.000660, 0.110000, 0.020000, 0.000000, 0.120000, 0.000000},
	{0, 3, 0, 1, -0.000310, 0.080000, 0.000000, 0.000000, -0.060000, 0.000000},
	{0, 3, 1, -1, -0.001090, -0.020000, -0.020000, -0.020000, -0.190000, 0.000000},
	{0, 3, 1, 1, -0.000830, -0.010000, -0.020000, -0.020000, -0.150000, 0.000000},
	{0, 3, 2, -1, -0.000040, 0.000000, 0.000000, 0.000000, 0.000000, 0.000000},
	{0, 3, 2, 1, -0.000080, 0.000000, 0.000000, 0.000000, -0.010000, 0.000000},
	{0, 4, -1, -1, -0.000040, 0.000000, 0.000000, 0.000000, -0.010000, 0.000000},
	{0, 4, -1, 1, -0.000040, 0.000000, 0.000000, 0.000000, 0.000000, 0.000000},
	{0, 4, 0, -1, 0.000040, 0.000000, 0.000000, 0.000000, 0.000000, 0.000000},
	{0, 4, 0, 1, 0.000010, 0.000000, 0.000000, 0.000000, 0.000000, 0.000000},
	{0, 4, 1, -1, -0.000020, 0.000000, 0.000000, 0.000000, 0.000000, 0.000000},
	{0, 4, 1, 1, -0.000010, 0.000000, 0.000000, 0.000000, 0.000000, 0.000000},
	{1, -3, -1, -1, 0.000030, 0.000000, 0.000000, 0.000000, 0.000000, 0.010000},
	{1, -3, 0, -1, 0.000110, 0.000000, 0.000000, 0.000000, 0.020000, 0.040000},
	{1, -3, 0, 1, 0.000120, 0.000000, 0.000000, 0.000000, 0.020000, 0.050000},
	{1, -3, 1, -1, -0.000020, 0.000000, 0.000000, 0.000000, 0.000000, 0.000000},
	{1, -2, -2, -1, 0.000070, 0.000000, 0.000000, 0.000000, 0.000000, 0.030000},
	{1, -2, -2, 1, -0.000030, 0.000000, 0.000000, 0.000000, 0.000000, -0.010000},
	{1, -2, -1, -1, 0.000640, 0.000000, 0.010000, 0.010000, 0.080000, 0.250000},
	{1, -2, -1, 1, -0.000010, 0.000000, 0.000000, 0.000000, 0.000000, 0.000000},
	{1, -2, 0, -1, 0.002040, 0.020000, 0.050000, 0.000000, 0.240000, 0.790000},
	{1, -2, 0, 1, 0.002140, 0.000000, 0.050000, 0.000000, 0.260000, 0.830000},
	{1, -2, 1, -1, -0.000600, -0.010000, -0.010000, -0.010000, -0.070000, -0.230000},
	{1, -2, 1, 1, 0.000050, 0.000000, 0.000000, 0.000000, 0.000000, 0.020000},
	{1, -2, 2, -1, -0.000060, 0.000000, 0.000000, 0.000000, 0.000000, -0.030000},
	{1, -2, 2, 1, -0.000030, 0.000000, 0.000000, 0.000000, 0.000000, -0.010000},
	{1, -1, -4, -1, 0.000030, 0.000000, 0.000000, 0.000000, 0.000000, 0.010000},
	{1, -1, -3, -1, 0.000180, 0.000000, 0.000000, 0.010000, 0.010000, 0.070000},
	{1, -1, -3, 1, -0.000040, 0.000000, 0.000000, 0.000000, 0.000000, -0.010000},
	{1, -1, -2, -1, 0.000960, 0.000000, 0.020000, 0.040000, 0.060000, 0.370000},
	{1, -1, -2, 1, -0.001370, -0.030000, -0.030000, -0.050000, -0.080000, -0.530000},
	{1, -1, -1, -3, -0.000030, 0.000000, 0.000000, 0.000000, 0.000000, -0.010000},
	{1, -1, -1, -1, 0.010310, 0.070000, 0.230000, 0.200000, 0.620000, 4.010000},
	{1, -1, -1, 1, 0.000800, 0.040000, 0.030000, 0.000000, 0.050000, 0.310000},
	{1, -1, 0, -3, -0.000520, 0.000000, -0.030000, 0.000000, -0.030000, -0.200000},
	{1, -1, 0, -1, -0.013460, -1.070000, -0.270000, 0.000000, -0.820000, -5.230000},
	{1, -1, 0, 1, -0.018290, -1.520000, -0.330000, 0.000000, -1.110000, -7.110000},
	{1, -1, 0, 3, 0.000060, 0.000000, 0.000000, 0.000000, 0.000000, 0.020000},
	{1, -1, 1, -3, -0.000080, 0.000000, 0.000000, 0.000000, 0.000000, -0.030000},
	{1, -1, 1, -1, -0.020120, -0.420000, -0.450000, -0.380000, -1.200000, -7.830000},
	{1, -1, 1, 1, -0.008450, -0.450000, -0.170000, -0.170000, -0.510000, -3.290000},
	{1, -1, 1, 3, 0.000020, 0.000000, 0.000000, 0.000000, 0.000000, 0.000000},
	{1, -1, 2, -1, -0.001750, -0.040000, -0.040000, -0.060000, -0.100000, -0.680000},
	{1, -1, 2, 1, -0.001460, -0.070000, -0.030000, -0.060000, -0.090000, -0.570000},
	{1, -1, 3, -1, -0.000150, 0.000000, 0.000000, 0.000000, 0.000000, -0.060000},
	{1, -1, 3, 1, -0.000180, 0.000000, 0.000000, -0.010000, -0.010000, -0.070000},
	{1, -1, 4, -1, -0.000010, 0.000000, 0.000000, 0.000000, 0.000000, 0.000000},
	{1, -1, 4, 1, -0.000020, 0.000000, 0.000000, 0.000000, 0.000000, 0.000000},
	{1, 0, -5, -1, -0.000110, 0.000000, 0.000000, -0.010000, 0.000000, -0.040000},
	{1, 0, -5, 1, -0.000040, 0.000000, 0.000000, 0.000000, 0.000000, -0.010000},
	{1, 0, -4, -1, -0.001220, -0.040000, -0.030000, -0.090000, 0.000000, -0.470000},
	{1, 0, -4, 1, -0.000430, 0.000000, 0.000000, -0.030000, 0.000000, -0.170000},
	{1, 0, -3, -1, -0.012550, -0.370000, -0.270000, -0.690000, 0.000000, -4.880000},
	{1, 0, -3, 1, -0.005370, -0.120000, -0.120000, -0.290000, 0.000000, -2.090000},
	{1, 0, -3, 3, 0.000020, 0.000000, 0.000000, 0.000000, 0.000000, 0.000000},
